{"learner":{"attributes":{},"feature_names":["rolling_last_3_avg","last_3","last_1","nrfi_2023","nrfi_2022","home","away"],"feature_types":["float","float","float","float","float","float","float"],"gradient_booster":{"model":{"gbtree_model_param":{"num_parallel_tree":"1","num_trees":"100"},"iteration_indptr":[0,1,2,3,4,5,6,7,8,9,10,11,12,13,14,15,16,17,18,19,20,21,22,23,24,25,26,27,28,29,30,31,32,33,34,35,36,37,38,39,40,41,42,43,44,45,46,47,48,49,50,51,52,53,54,55,56,57,58,59,60,61,62,63,64,65,66,67,68,69,70,71,72,73,74,75,76,77,78,79,80,81,82,83,84,85,86,87,88,89,90,91,92,93,94,95,96,97,98,99,100],"tree_info":[0,0,0,0,0,0,0,0,0,0,0,0,0,0,0,0,0,0,0,0,0,0,0,0,0,0,0,0,0,0,0,0,0,0,0,0,0,0,0,0,0,0,0,0,0,0,0,0,0,0,0,0,0,0,0,0,0,0,0,0,0,0,0,0,0,0,0,0,0,0,0,0,0,0,0,0,0,0,0,0,0,0,0,0,0,0,0,0,0,0,0,0,0,0,0,0,0,0,0,0],"trees":[{"base_weights":[-8.110838E-8,-1.3362983E0,4.893814E-1,-2.7030067E0,-1.0467721E0,3.426556E-1,9.2487156E-1,-1.8404914E-2,-2.837838E-1,-4.7512427E-2,-1.6093194E-1,-5.2507102E-2,4.2602755E-2,9.7062975E-2,-4.3287333E-2],"categories":[],"categories_nodes":[],"categories_segments":[],"categories_sizes":[],"default_left":[0,0,0,1,0,1,1,0,0,0,0,0,0,0,0],"id":0,"left_children":[1,3,5,7,9,11,13,-1,-1,-1,-1,-1,-1,-1,-1],"loss_changes":[3.1206952E2,4.77865E1,2.2001541E1,6.8575745E0,3.370436E1,1.9239244E1,5.8523483E0,0E0,0E0,0E0,0E0,0E0,0E0,0E0,0E0],"parents":[2147483647,0,0,1,1,2,2,3,3,4,4,5,5,6,6],"right_children":[2,4,6,8,10,12,14,-1,-1,-1,-1,-1,-1,-1,-1],"split_conditions":[1E0,3.3333334E-1,1E0,6.358E-1,6.667E-1,6.386E-1,1E0,-1.8404914E-2,-2.837838E-1,-4.7512427E-2,-1.6093194E-1,-5.2507102E-2,4.2602755E-2,9.7062975E-2,-4.3287333E-2],"split_indices":[2,0,0,4,0,6,6,0,0,0,0,0,0,0,0],"split_type":[0,0,0,0,0,0,0,0,0,0,0,0,0,0,0],"sum_hessian":[4.7519998E2,1.2691555E2,3.4828445E2,2.072889E1,1.0618667E2,2.6184888E2,8.6435555E1,1.1733333E0,1.9555555E1,5.3582222E1,5.2604443E1,2.2488888E1,2.3936E2,8.389333E1,2.5422223E0],"tree_param":{"num_deleted":"0","num_feature":"7","num_nodes":"15","size_leaf_vector":"1"}},{"base_weights":[1.1083481E-3,-1.1355579E0,4.5186448E-1,-1.03212744E-1,-1.4192603E0,3.1386882E-1,8.731907E-1,2.561369E-2,-3.433446E-2,-1.6819173E-1,2.1972802E-2,-2.1332363E-2,4.3311305E-2,9.186845E-2,-3.9580457E-2],"categories":[],"categories_nodes":[],"categories_segments":[],"categories_sizes":[],"default_left":[0,1,0,0,0,1,1,0,0,0,0,0,0,0,0],"id":1,"left_children":[1,3,5,7,9,11,13,-1,-1,-1,-1,-1,-1,-1,-1],"loss_changes":[2.4416199E2,3.9485092E1,1.9565193E1,2.6981676E0,4.6031143E1,1.6349178E1,5.191456E0,0E0,0E0,0E0,0E0,0E0,0E0,0E0,0E0],"parents":[2147483647,0,0,1,1,2,2,3,3,4,4,5,5,6,6],"right_children":[2,4,6,8,10,12,14,-1,-1,-1,-1,-1,-1,-1,-1],"split_conditions":[1E0,6.265E-1,1E0,6.491E-1,8E-1,6.742E-1,1E0,2.561369E-2,-3.433446E-2,-1.6819173E-1,2.1972802E-2,-2.1332363E-2,4.3311305E-2,9.186845E-2,-3.9580457E-2],"split_indices":[2,5,0,3,4,6,6,0,0,0,0,0,0,0,0],"split_type":[0,0,0,0,0,0,0,0,0,0,0,0,0,0,0],"sum_hessian":[4.74543E2,1.3431735E2,3.4022565E2,2.9248991E1,1.0506836E2,2.5759976E2,8.262589E1,1.168945E1,1.7559542E1,9.053364E1,1.4534716E1,4.7372314E1,2.1022743E2,8.003275E1,2.5931423E0],"tree_param":{"num_deleted":"0","num_feature":"7","num_nodes":"15","size_leaf_vector":"1"}},{"base_weights":[2.4731564E-3,-9.777168E-1,4.1704637E-1,-9.2603736E-2,-1.2095927E0,2.8735545E-1,8.249783E-1,-7.769551E-2,1.9336032E-3,-1.4203614E-1,2.010302E-2,-4.3890517E-2,3.6223423E-2,8.702031E-2,-3.6237553E-2],"categories":[],"categories_nodes":[],"categories_segments":[],"categories_sizes":[],"default_left":[0,1,0,0,0,1,1,0,0,0,0,0,0,0,0],"id":2,"left_children":[1,3,5,7,9,11,13,-1,-1,-1,-1,-1,-1,-1,-1],"loss_changes":[1.9288567E2,2.8844482E1,1.741071E1,2.3416648E0,3.3500687E1,1.4006733E1,4.607605E0,0E0,0E0,0E0,0E0,0E0,0E0,0E0,0E0],"parents":[2147483647,0,0,1,1,2,2,3,3,4,4,5,5,6,6],"right_children":[2,4,6,8,10,12,14,-1,-1,-1,-1,-1,-1,-1,-1],"split_conditions":[1E0,6.265E-1,1E0,3.8886666E-1,8E-1,6.386E-1,1E0,-7.769551E-2,1.9336032E-3,-1.4203614E-1,2.010302E-2,-4.3890517E-2,3.6223423E-2,8.702031E-2,-3.6237553E-2],"split_indices":[2,5,0,0,4,6,6,0,0,0,0,0,0,0,0],"split_type":[0,0,0,0,0,0,0,0,0,0,0,0,0,0,0],"sum_hessian":[4.726629E2,1.4008847E2,3.3257443E2,2.9371479E1,1.10716995E2,2.5364067E2,7.893378E1,3.2937968E0,2.6077682E1,9.631861E1,1.4398384E1,2.325224E1,2.3038843E2,7.6294914E1,2.638868E0],"tree_param":{"num_deleted":"0","num_feature":"7","num_nodes":"15","size_leaf_vector":"1"}},{"base_weights":[3.0871138E-3,-8.540393E-1,3.8457E-1,-1.7539257E0,-6.513163E-1,2.6276717E-1,7.7959937E-1,-1.1116993E-2,-1.8311964E-1,-2.3666209E-2,-1.0385517E-1,-1.874093E-2,3.697853E-2,8.339438E-2,-2.306208E-2],"categories":[],"categories_nodes":[],"categories_segments":[],"categories_sizes":[],"default_left":[0,0,0,1,0,1,0,0,0,0,0,0,0,0,0],"id":3,"left_children":[1,3,5,7,9,11,13,-1,-1,-1,-1,-1,-1,-1,-1],"loss_changes":[1.5418672E2,2.5352516E1,1.5495766E1,3.1109695E0,1.9042236E1,1.2157707E1,4.386318E0,0E0,0E0,0E0,0E0,0E0,0E0,0E0,0E0],"parents":[2147483647,0,0,1,1,2,2,3,3,4,4,5,5,6,6],"right_children":[2,4,6,8,10,12,14,-1,-1,-1,-1,-1,-1,-1,-1],"split_conditions":[1E0,3.3333334E-1,1E0,6.358E-1,6.667E-1,6.742E-1,8.182E-1,-1.1116993E-2,-1.8311964E-1,-2.3666209E-2,-1.0385517E-1,-1.874093E-2,3.697853E-2,8.339438E-2,-2.306208E-2],"split_indices":[2,0,0,4,0,6,5,0,0,0,0,0,0,0,0],"split_type":[0,0,0,0,0,0,0,0,0,0,0,0,0,0,0],"sum_hessian":[4.6954477E2,1.4423494E2,3.253098E2,2.511183E1,1.1912311E2,2.499162E2,7.539363E1,1.2376838E0,2.3874146E1,5.830301E1,6.0820095E1,4.785613E1,2.0206006E2,7.171049E1,3.683146E0],"tree_param":{"num_deleted":"0","num_feature":"7","num_nodes":"15","size_leaf_vector":"1"}},{"base_weights":[3.1151385E-3,-7.539391E-1,3.5438067E-1,-9.0604013E-1,1.9057281E-1,2.40155E-1,7.3647547E-1,-3.1720449E-3,-1.13717906E-1,-1.8165166E-2,6.654823E-2,-3.6852222E-2,3.0680625E-2,8.357636E-2,1.2116744E-2],"categories":[],"categories_nodes":[],"categories_segments":[],"categories_sizes":[],"default_left":[0,0,0,0,0,1,1,0,0,0,0,0,0,0,0],"id":4,"left_children":[1,3,5,7,9,11,13,-1,-1,-1,-1,-1,-1,-1,-1],"loss_changes":[1.24399796E2,2.1472237E1,1.3769005E1,2.5805534E1,3.9021182E0,1.0152911E1,4.3618164E0,0E0,0E0,0E0,0E0,0E0,0E0,0E0,0E0],"parents":[2147483647,0,0,1,1,2,2,3,3,4,4,5,5,6,6],"right_children":[2,4,6,8,10,12,14,-1,-1,-1,-1,-1,-1,-1,-1],"split_conditions":[1E0,7.778E-1,1E0,6.265E-1,7.419E-1,6.386E-1,8.095E-1,-3.1720449E-3,-1.13717906E-1,-1.8165166E-2,6.654823E-2,-3.6852222E-2,3.0680625E-2,8.357636E-2,1.2116744E-2],"split_indices":[2,0,0,5,5,6,6,0,0,0,0,0,0,0,0],"split_type":[0,0,0,0,0,0,0,0,0,0,0,0,0,0,0],"sum_hessian":[4.6579193E2,1.4726253E2,3.1852942E2,1.2687219E2,2.0390337E1,2.4647519E2,7.205422E1,2.676533E1,1.00106865E2,1.1777147E1,8.613189E0,2.3878763E1,2.2259642E2,6.1734287E1,1.0319933E1],"tree_param":{"num_deleted":"0","num_feature":"7","num_nodes":"15","size_leaf_vector":"1"}},{"base_weights":[3.6140438E-3,-6.6711587E-1,3.2629037E-1,-3.0581993E-1,-1.0281047E0,2.1920882E-1,6.9566613E-1,-1.2555613E-1,-1.4965157E-2,-1.17127776E-1,2.9463327E-2,3.2797985E-2,-1.2563045E-2,7.942751E-2,1.10828E-2],"categories":[],"categories_nodes":[],"categories_segments":[],"categories_sizes":[],"default_left":[0,1,0,0,0,0,1,0,0,0,0,0,0,0,0],"id":5,"left_children":[1,3,5,7,9,11,13,-1,-1,-1,-1,-1,-1,-1,-1],"loss_changes":[1.0039499E2,1.9337242E1,1.2235203E1,1.119253E1,1.4538475E1,9.203108E0,3.944725E0,0E0,0E0,0E0,0E0,0E0,0E0,0E0,0E0],"parents":[2147483647,0,0,1,1,2,2,3,3,4,4,5,5,6,6],"right_children":[2,4,6,8,10,12,14,-1,-1,-1,-1,-1,-1,-1,-1],"split_conditions":[1E0,7.195E-1,1E0,3.3333334E-1,7.576E-1,7.669E-1,8.095E-1,-1.2555613E-1,-1.4965157E-2,-1.17127776E-1,2.9463327E-2,3.2797985E-2,-1.2563045E-2,7.942751E-2,1.10828E-2],"split_indices":[2,4,0,0,5,4,6,0,0,0,0,0,0,0,0],"split_type":[0,0,0,0,0,0,0,0,0,0,0,0,0,0,0],"sum_hessian":[4.6186523E2,1.4967546E2,3.121898E2,7.572911E1,7.394636E1,2.4326193E2,6.892785E1,9.699795E0,6.602932E1,6.682746E1,7.1188946E0,1.8496742E2,5.82945E1,5.8676376E1,1.0251474E1],"tree_param":{"num_deleted":"0","num_feature":"7","num_nodes":"15","size_leaf_vector":"1"}},{"base_weights":[3.6086463E-3,-5.942613E-1,3.0006716E-1,-1.303442E0,-4.3620062E-1,-1.2067133E-1,3.8994363E-1,-8.6777844E-4,-1.3689677E-1,-7.6760002E-3,-7.739971E-2,1.4239653E-2,-5.2609272E-2,5.7587124E-2,8.218969E-3],"categories":[],"categories_nodes":[],"categories_segments":[],"categories_sizes":[],"default_left":[0,0,1,1,0,0,0,0,0,0,0,0,0,0,0],"id":6,"left_children":[1,3,5,7,9,11,13,-1,-1,-1,-1,-1,-1,-1,-1],"loss_changes":[8.1513306E1,1.6520226E1,1.1672628E1,2.302765E0,1.5259722E1,5.9277873E0,1.446133E1,0E0,0E0,0E0,0E0,0E0,0E0,0E0,0E0],"parents":[2147483647,0,0,1,1,2,2,3,3,4,4,5,5,6,6],"right_children":[2,4,6,8,10,12,14,-1,-1,-1,-1,-1,-1,-1,-1],"split_conditions":[1E0,3.3333334E-1,6.742E-1,6.358E-1,6.667E-1,6.641E-1,7.719E-1,-8.6777844E-4,-1.3689677E-1,-7.6760002E-3,-7.739971E-2,1.4239653E-2,-5.2609272E-2,5.7587124E-2,8.218969E-3],"split_indices":[2,0,6,4,0,3,6,0,0,0,0,0,0,0,0],"split_type":[0,0,0,0,0,0,0,0,0,0,0,0,0,0,0],"sum_hessian":[4.5788806E2,1.5145108E2,3.0643698E2,2.6282278E1,1.251688E2,5.387755E1,2.5255943E2,1.3205795E0,2.4961699E1,6.1236176E1,6.3932625E1,3.3068798E1,2.0808754E1,1.568988E2,9.566063E1],"tree_param":{"num_deleted":"0","num_feature":"7","num_nodes":"15","size_leaf_vector":"1"}},{"base_weights":[3.2843568E-3,-5.327968E-1,2.7545318E-1,-6.6178757E-1,2.7527678E-1,-6.077287E-2,3.866984E-1,5.443721E-3,-8.507307E-2,7.4143924E-2,-2.0803649E-3,6.1981745E-2,-3.6044713E-2,4.5243658E-2,-5.9030738E-2],"categories":[],"categories_nodes":[],"categories_segments":[],"categories_sizes":[],"default_left":[0,0,0,0,1,0,0,0,0,0,0,0,0,0,0],"id":7,"left_children":[1,3,5,7,9,11,13,-1,-1,-1,-1,-1,-1,-1,-1],"loss_changes":[6.646157E1,1.6170753E1,1.1323744E1,1.798645E1,3.027216E0,1.5718532E1,1.4855751E1,0E0,0E0,0E0,0E0,0E0,0E0,0E0,0E0],"parents":[2147483647,0,0,1,1,2,2,3,3,4,4,5,5,6,6],"right_children":[2,4,6,8,10,12,14,-1,-1,-1,-1,-1,-1,-1,-1],"split_conditions":[1E0,7.778E-1,6.667E-1,6.265E-1,7.059E-1,6.667E-1,8.4E-1,5.443721E-3,-8.507307E-2,7.4143924E-2,-2.0803649E-3,6.1981745E-2,-3.6044713E-2,4.5243658E-2,-5.9030738E-2],"split_indices":[2,0,0,5,6,1,5,0,0,0,0,0,0,0,0],"split_type":[0,0,0,0,0,0,0,0,0,0,0,0,0,0,0],"sum_hessian":[4.5350815E2,1.5239116E2,3.0111697E2,1.3156999E2,2.0821163E1,7.497308E1,2.261439E2,2.7612282E1,1.0395771E2,7.503356E0,1.3317806E1,2.2593248E1,5.2379837E1,2.1239008E2,1.3753823E1],"tree_param":{"num_deleted":"0","num_feature":"7","num_nodes":"15","size_leaf_vector":"1"}},{"base_weights":[3.4907812E-3,-4.769582E-1,2.525863E-1,-5.941211E-1,3.0541307E-1,1.5385206E-1,6.120962E-1,5.3589344E-3,-7.832119E-2,-5.4425716E-2,3.9870948E-2,1.8441616E-2,-8.4421515E-2,-5.5441882E-2,6.551066E-2],"categories":[],"categories_nodes":[],"categories_segments":[],"categories_sizes":[],"default_left":[0,0,0,0,0,1,1,0,0,0,0,0,0,0,0],"id":8,"left_children":[1,3,5,7,9,11,13,-1,-1,-1,-1,-1,-1,-1,-1],"loss_changes":[5.402373E1,1.4309937E1,1.0457762E1,1.6502266E1,1.8607613E0,7.3108363E0,3.5599346E0,0E0,0E0,0E0,0E0,0E0,0E0,0E0,0E0],"parents":[2147483647,0,0,1,1,2,2,3,3,4,4,5,5,6,6],"right_children":[2,4,6,8,10,12,14,-1,-1,-1,-1,-1,-1,-1,-1],"split_conditions":[1E0,7.556E-1,1E0,6.265E-1,6.491E-1,9E-1,5.088E-1,5.3589344E-3,-7.832119E-2,-5.4425716E-2,3.9870948E-2,1.8441616E-2,-8.4421515E-2,-5.5441882E-2,6.551066E-2],"split_indices":[2,5,0,5,4,6,5,0,0,0,0,0,0,0,0],"split_type":[0,0,0,0,0,0,0,0,0,0,0,0,0,0,0],"sum_hessian":[4.4940353E2,1.5313193E2,2.962716E2,1.3339601E2,1.9735916E1,2.3355658E2,6.271504E1,3.0305235E1,1.03090775E2,1.4744205E0,1.8261496E1,2.2740784E2,6.1487436E0,1.8073143E0,6.0907722E1],"tree_param":{"num_deleted":"0","num_feature":"7","num_nodes":"15","size_leaf_vector":"1"}},{"base_weights":[3.1771027E-3,-4.288757E-1,2.3108083E-1,-1.3683543E-1,-7.2075415E-1,-1.5104109E-1,3.1621605E-1,-9.174327E-2,-1.4040153E-3,-8.346659E-2,4.8976712E-2,-9.561066E-2,-3.0741848E-3,4.958344E-2,3.0642205E-3],"categories":[],"categories_nodes":[],"categories_segments":[],"categories_sizes":[],"default_left":[0,1,1,0,0,0,0,0,0,0,0,0,0,0,0],"id":9,"left_children":[1,3,5,7,9,11,13,-1,-1,-1,-1,-1,-1,-1,-1],"loss_changes":[4.402831E1,1.3063675E1,9.570526E0,7.5039635E0,1.1025707E1,5.2014937E0,1.22804985E1,0E0,0E0,0E0,0E0,0E0,0E0,0E0,0E0],"parents":[2147483647,0,0,1,1,2,2,3,3,4,4,5,5,6,6],"right_children":[2,4,6,8,10,12,14,-1,-1,-1,-1,-1,-1,-1,-1],"split_conditions":[1E0,7.195E-1,6.742E-1,3.3333334E-1,8E-1,5.5553335E-1,7.719E-1,-9.174327E-2,-1.4040153E-3,-8.346659E-2,4.8976712E-2,-9.561066E-2,-3.0741848E-3,4.958344E-2,3.0642205E-3],"split_indices":[2,4,6,0,4,0,6,0,0,0,0,0,0,0,0],"split_type":[0,0,0,0,0,0,0,0,0,0,0,0,0,0,0],"sum_hessian":[4.4513373E2,1.5341414E2,2.917196E2,7.742001E1,7.599413E1,5.3010868E1,2.3870872E2,9.643842E0,6.777617E1,6.974182E1,6.252311E0,5.9882975E0,4.7022568E1,1.4608739E2,9.2621346E1],"tree_param":{"num_deleted":"0","num_feature":"7","num_nodes":"15","size_leaf_vector":"1"}},{"base_weights":[2.7896264E-3,-3.8659227E-1,2.1128492E-1,-4.9493986E-1,2.9660228E-1,1.19681396E-1,5.583304E-1,-2.5359964E-2,-9.607104E-2,7.2116375E-2,2.8256786E-3,2.1556037E-2,-1.680879E-2,7.934289E-3,6.733652E-2],"categories":[],"categories_nodes":[],"categories_segments":[],"categories_sizes":[],"default_left":[0,0,0,0,1,0,0,0,0,0,0,0,0,0,0],"id":10,"left_children":[1,3,5,7,9,11,13,-1,-1,-1,-1,-1,-1,-1,-1],"loss_changes":[3.596221E1,1.1581627E1,9.104327E0,1.4786278E1,2.4599109E0,6.3687644E0,3.2510452E0,0E0,0E0,0E0,0E0,0E0,0E0,0E0,0E0],"parents":[2147483647,0,0,1,1,2,2,3,3,4,4,5,5,6,6],"right_children":[2,4,6,8,10,12,14,-1,-1,-1,-1,-1,-1,-1,-1],"split_conditions":[1E0,7.778E-1,1E0,6.667E-1,7.059E-1,7.669E-1,6.818E-1,-2.5359964E-2,-9.607104E-2,7.2116375E-2,2.8256786E-3,2.1556037E-2,-1.680879E-2,7.934289E-3,6.733652E-2],"split_indices":[2,0,0,0,6,4,3,0,0,0,0,0,0,0,0],"split_type":[0,0,0,0,0,0,0,0,0,0,0,0,0,0,0],"sum_hessian":[4.4096396E2,1.5347769E2,2.8748627E2,1.3270724E2,2.0770445E1,2.2851424E2,5.8972034E1,8.843098E1,4.427627E1,7.3903685E0,1.3380077E1,1.7159361E2,5.6920628E1,1.174739E1,4.7224648E1],"tree_param":{"num_deleted":"0","num_feature":"7","num_nodes":"15","size_leaf_vector":"1"}},{"base_weights":[2.8616833E-3,-3.4772477E-1,1.9331917E-1,-9.652678E-1,-2.1878989E-1,-9.906384E-2,2.9515567E-1,-1.0693389E-1,-8.429916E-3,7.887494E-3,-5.0559293E-2,5.517881E-2,-3.7013326E-2,3.5761353E-2,-5.4734655E-2],"categories":[],"categories_nodes":[],"categories_segments":[],"categories_sizes":[],"default_left":[0,0,0,0,0,0,0,0,0,0,0,0,0,0,0],"id":11,"left_children":[1,3,5,7,9,11,13,-1,-1,-1,-1,-1,-1,-1,-1],"loss_changes":[2.9337273E1,1.210391E1,8.506003E0,2.3322945E0,1.10737705E1,1.3311183E1,1.1319796E1,0E0,0E0,0E0,0E0,0E0,0E0,0E0,0E0],"parents":[2147483647,0,0,1,1,2,2,3,3,4,4,5,5,6,6],"right_children":[2,4,6,8,10,12,14,-1,-1,-1,-1,-1,-1,-1,-1],"split_conditions":[1E0,3.3333334E-1,6.667E-1,7.5E-1,6.667E-1,6.667E-1,8.4E-1,-1.0693389E-1,-8.429916E-3,7.887494E-3,-5.0559293E-2,5.517881E-2,-3.7013326E-2,3.5761353E-2,-5.4734655E-2],"split_indices":[2,0,0,6,0,1,5,0,0,0,0,0,0,0,0],"split_type":[0,0,0,0,0,0,0,0,0,0,0,0,0,0,0],"sum_hessian":[4.373594E2,1.5366794E2,2.8369147E2,2.5421816E1,1.2824612E2,7.329146E1,2.1040001E2,2.2544727E1,2.8770897E0,6.3287148E1,6.495897E1,2.1245144E1,5.204631E1,1.9641458E2,1.3985419E1],"tree_param":{"num_deleted":"0","num_feature":"7","num_nodes":"15","size_leaf_vector":"1"}},{"base_weights":[2.4757802E-3,-3.149019E-1,1.7661822E-1,-8.510579E-1,-1.8821988E-1,2.0823975E-1,-7.0639306E-1,-9.609506E-2,4.0887E-2,1.0389324E-2,-4.544925E-2,-1.5660707E-2,2.9662672E-2,-1.16098724E-1,2.746289E-2],"categories":[],"categories_nodes":[],"categories_segments":[],"categories_sizes":[],"default_left":[0,0,1,0,0,1,0,0,0,0,0,0,0,0,0],"id":12,"left_children":[1,3,5,7,9,11,13,-1,-1,-1,-1,-1,-1,-1,-1],"loss_changes":[2.406532E1,1.0318048E1,7.9973E0,4.4358807E0,9.853153E0,8.824218E0,4.75519E0,0E0,0E0,0E0,0E0,0E0,0E0,0E0,0E0],"parents":[2147483647,0,0,1,1,2,2,3,3,4,4,5,5,6,6],"right_children":[2,4,6,8,10,12,14,-1,-1,-1,-1,-1,-1,-1,-1],"split_conditions":[1E0,3.8886666E-1,9E-1,7.792E-1,6.667E-1,6.742E-1,8.395E-1,-9.609506E-2,4.0887E-2,1.0389324E-2,-4.544925E-2,-1.5660707E-2,2.9662672E-2,-1.16098724E-1,2.746289E-2],"split_indices":[2,0,6,6,0,6,4,0,0,0,0,0,0,0,0],"split_type":[0,0,0,0,0,0,0,0,0,0,0,0,0,0,0],"sum_hessian":[4.33416E2,1.5327016E2,2.8014584E2,2.8200245E1,1.2506991E2,2.7119812E2,8.947708E0,2.6156164E1,2.0440817E0,5.9931816E1,6.513809E1,5.2736935E1,2.184612E2,5.98902E0,2.958689E0],"tree_param":{"num_deleted":"0","num_feature":"7","num_nodes":"15","size_leaf_vector":"1"}},{"base_weights":[2.0126337E-3,-2.8522402E-1,1.608732E-1,-4.0816087E-1,2.6518926E-1,7.793442E-2,4.908667E-1,-1.8923143E-2,-8.9959346E-2,7.183002E-2,2.4572914E-3,2.1383833E-2,-1.1536541E-2,5.98316E-2,-4.930684E-3],"categories":[],"categories_nodes":[],"categories_segments":[],"categories_sizes":[],"default_left":[0,0,0,0,1,0,1,0,0,0,0,0,0,0,0],"id":13,"left_children":[1,3,5,7,9,11,13,-1,-1,-1,-1,-1,-1,-1,-1],"loss_changes":[1.9691296E1,1.0507034E1,7.566391E0,1.338752E1,3.1074607E0,5.8890867E0,3.257701E0,0E0,0E0,0E0,0E0,0E0,0E0,0E0,0E0],"parents":[2147483647,0,0,1,1,2,2,3,3,4,4,5,5,6,6],"right_children":[2,4,6,8,10,12,14,-1,-1,-1,-1,-1,-1,-1,-1],"split_conditions":[1E0,7.2223336E-1,1E0,6.667E-1,7.059E-1,7.2223336E-1,8.095E-1,-1.8923143E-2,-8.9959346E-2,7.183002E-2,2.4572914E-3,2.1383833E-2,-1.1536541E-2,5.98316E-2,-4.930684E-3],"split_indices":[2,0,0,0,6,0,6,0,0,0,0,0,0,0,0],"split_type":[0,0,0,0,0,0,0,0,0,0,0,0,0,0,0],"sum_hessian":[4.295317E2,1.5267813E2,2.7685358E2,1.2501419E2,2.7663937E1,2.2223453E2,5.4619053E1,8.744374E1,3.7570454E1,8.906543E0,1.8757393E1,1.3042792E2,9.180661E1,4.5467243E1,9.151812E0],"tree_param":{"num_deleted":"0","num_feature":"7","num_nodes":"15","size_leaf_vector":"1"}},{"base_weights":[2.0624197E-3,-2.5748727E-1,1.4682929E-1,-3.547669E-1,3.8154748E-1,-1.2538111E-1,2.4425818E-1,-2.2843366E-2,-1.068484E-1,4.319114E-3,5.920976E-2,4.92891E-2,-3.6971346E-2,5.977988E-2,1.0293781E-2],"categories":[],"categories_nodes":[],"categories_segments":[],"categories_sizes":[],"default_left":[0,0,0,0,0,0,0,0,0,0,0,0,0,0,0],"id":14,"left_children":[1,3,5,7,9,11,13,-1,-1,-1,-1,-1,-1,-1,-1],"loss_changes":[1.6094631E1,9.669763E0,7.322992E0,1.1804602E1,1.4523141E0,1.1230341E1,1.0072294E1,0E0,0E0,0E0,0E0,0E0,0E0,0E0,0E0],"parents":[2147483647,0,0,1,1,2,2,3,3,4,4,5,5,6,6],"right_children":[2,4,6,8,10,12,14,-1,-1,-1,-1,-1,-1,-1,-1],"split_conditions":[1E0,7.556E-1,6.667E-1,7.407E-1,7.266E-1,6.667E-1,7.2223336E-1,-2.2843366E-2,-1.068484E-1,4.319114E-3,5.920976E-2,4.92891E-2,-3.6971346E-2,5.977988E-2,1.0293781E-2],"split_indices":[2,5,0,5,3,1,0,0,0,0,0,0,0,0,0],"split_type":[0,0,0,0,0,0,0,0,0,0,0,0,0,0,0],"sum_hessian":[4.263365E2,1.5237238E2,2.739641E2,1.3262747E2,1.9744911E1,7.213537E1,2.0182874E2,1.1380347E2,1.8824001E1,8.03604E0,1.1708871E1,2.0144165E1,5.1991207E1,5.6714985E1,1.4511374E2],"tree_param":{"num_deleted":"0","num_feature":"7","num_nodes":"15","size_leaf_vector":"1"}},{"base_weights":[2.125258E-3,-2.3257415E-1,1.3405785E-1,-7.462331E-1,-1.1486592E-1,-1.6845213E-1,1.4754744E-1,5.7595998E-2,-8.363085E-2,3.5937283E-2,-2.4940832E-2,6.9248974E-3,4.682569E-2],"categories":[],"categories_nodes":[],"categories_segments":[],"categories_sizes":[],"default_left":[0,0,0,0,1,0,0,0,0,0,0,0,0],"id":15,"left_children":[1,3,5,7,9,-1,11,-1,-1,-1,-1,-1,-1],"loss_changes":[1.3176681E1,9.173085E0,6.9310384E0,3.8601694E0,8.114221E0,0E0,6.7805524E0,0E0,0E0,0E0,0E0,0E0,0E0],"parents":[2147483647,0,0,1,1,2,2,3,3,4,4,6,6],"right_children":[2,4,6,8,10,-1,12,-1,-1,-1,-1,-1,-1],"split_conditions":[1E0,3.8886666E-1,5E-1,5E-1,6.706E-1,-1.6845213E-1,1E0,5.7595998E-2,-8.363085E-2,3.5937283E-2,-2.4940832E-2,6.9248974E-3,4.682569E-2],"split_indices":[2,0,6,5,6,0,0,0,0,0,0,0,0],"split_type":[0,0,0,0,0,0,0,0,0,0,0,0,0],"sum_hessian":[4.2353464E2,1.5213452E2,2.7140015E2,2.7367527E1,1.2476699E2,1.0862288E0,2.703139E2,1.4014724E0,2.5966055E1,2.7204554E1,9.756244E1,2.1824675E2,5.2067158E1],"tree_param":{"num_deleted":"0","num_feature":"7","num_nodes":"13","size_leaf_vector":"1"}},{"base_weights":[1.7024844E-3,-2.1039933E-1,1.2153699E-1,2.5761656E-2,-4.5438132E-1,1.5126577E-1,-6.5438974E-1,-5.8768768E-2,1.1320329E-2,-5.4871213E-2,5.0444394E-2,-1.713799E-2,2.3288326E-2,-1.0420138E-1,2.3825014E-2],"categories":[],"categories_nodes":[],"categories_segments":[],"categories_sizes":[],"default_left":[0,1,1,0,0,1,0,0,0,0,0,0,0,0,0],"id":16,"left_children":[1,3,5,7,9,11,13,-1,-1,-1,-1,-1,-1,-1,-1],"loss_changes":[1.0735896E1,8.798155E0,6.3246403E0,4.2738285E0,7.065529E0,6.906208E0,3.7591171E0,0E0,0E0,0E0,0E0,0E0,0E0,0E0,0E0],"parents":[2147483647,0,0,1,1,2,2,3,3,4,4,5,5,6,6],"right_children":[2,4,6,8,10,12,14,-1,-1,-1,-1,-1,-1,-1,-1],"split_conditions":[1E0,7.195E-1,9E-1,3.3333334E-1,8E-1,6.742E-1,8.395E-1,-5.8768768E-2,1.1320329E-2,-5.4871213E-2,5.0444394E-2,-1.713799E-2,2.3288326E-2,-1.0420138E-1,2.3825014E-2],"split_indices":[2,4,6,0,4,6,4,0,0,0,0,0,0,0,0],"split_type":[0,0,0,0,0,0,0,0,0,0,0,0,0,0,0],"sum_hessian":[4.203824E2,1.5149216E2,2.6889023E2,7.743439E1,7.405777E1,2.5974347E2,9.146735E0,8.946817E0,6.848757E1,6.781385E1,6.243915E0,5.2218086E1,2.0752539E2,6.2607145E0,2.8860204E0],"tree_param":{"num_deleted":"0","num_feature":"7","num_nodes":"15","size_leaf_vector":"1"}},{"base_weights":[1.3531651E-3,-5.5480286E-2,4.1176262E-1,1.5492425E-2,-4.7094086E-1,-6.919694E-2,5.3772175E-1,-2.1767595E-3,6.3662045E-2,-1.0743228E-1,-1.9127447E-2,3.193676E-2,-6.154669E-2,7.580902E-2,9.44978E-3],"categories":[],"categories_nodes":[],"categories_segments":[],"categories_sizes":[],"default_left":[0,1,0,0,0,0,1,0,0,0,0,0,0,0,0],"id":17,"left_children":[1,3,5,7,9,11,13,-1,-1,-1,-1,-1,-1,-1,-1],"loss_changes":[9.779654E0,1.0867117E1,3.1267815E0,7.3162775E0,8.867686E0,2.6312416E0,3.8868914E0,0E0,0E0,0E0,0E0,0E0,0E0,0E0,0E0],"parents":[2147483647,0,0,1,1,2,2,3,3,4,4,5,5,6,6],"right_children":[2,4,6,8,10,12,14,-1,-1,-1,-1,-1,-1,-1,-1],"split_conditions":[1E0,7.669E-1,6.818E-1,8.085E-1,7.84E-1,7.356E-1,7.843E-1,-2.1767595E-3,6.3662045E-2,-1.0743228E-1,-1.9127447E-2,3.193676E-2,-6.154669E-2,7.580902E-2,9.44978E-3],"split_indices":[0,4,3,3,4,4,6,0,0,0,0,0,0,0,0],"split_type":[0,0,0,0,0,0,0,0,0,0,0,0,0,0,0],"sum_hessian":[4.1729858E2,3.6729977E2,4.999881E1,3.145314E2,5.276837E1,1.0470217E1,3.9528595E1,2.9764154E2,1.6889868E1,1.581214E1,3.6956234E1,6.3609834E0,4.109233E0,2.5927296E1,1.3601299E1],"tree_param":{"num_deleted":"0","num_feature":"7","num_nodes":"15","size_leaf_vector":"1"}},{"base_weights":[1.4033971E-3,-5.007515E-2,3.8445172E-1,1.4212372E-2,-4.2473269E-1,-5.2681684E-1,4.438776E-1,-1.9581637E-3,5.968062E-2,-7.11434E-2,8.527843E-3,-6.683766E-2,-1.422479E-2,4.9491864E-2,-4.8949894E-2],"categories":[],"categories_nodes":[],"categories_segments":[],"categories_sizes":[],"default_left":[0,1,1,0,0,0,0,0,0,0,0,0,0,0,0],"id":18,"left_children":[1,3,5,7,9,11,13,-1,-1,-1,-1,-1,-1,-1,-1],"loss_changes":[8.234375E0,8.87305E0,2.9128804E0,6.217252E0,7.949319E0,9.46973E-2,2.4806871E0,0E0,0E0,0E0,0E0,0E0,0E0,0E0,0E0],"parents":[2147483647,0,0,1,1,2,2,3,3,4,4,5,5,6,6],"right_children":[2,4,6,8,10,12,14,-1,-1,-1,-1,-1,-1,-1,-1],"split_conditions":[1E0,7.669E-1,5.294E-1,8.085E-1,8E-1,6.693E-1,8.492E-1,-1.9581637E-3,5.968062E-2,-7.11434E-2,8.527843E-3,-6.683766E-2,-1.422479E-2,4.9491864E-2,-4.8949894E-2],"split_indices":[0,4,5,3,4,3,3,0,0,0,0,0,0,0,0],"split_type":[0,0,0,0,0,0,0,0,0,0,0,0,0,0,0],"sum_hessian":[4.1561435E2,3.6714267E2,4.8471687E1,3.141924E2,5.295024E1,2.4859343E0,4.5985752E1,2.9787994E2,1.6312471E1,3.364299E1,1.9307251E1,1.2776449E0,1.2082894E0,4.4046837E1,1.9389161E0],"tree_param":{"num_deleted":"0","num_feature":"7","num_nodes":"15","size_leaf_vector":"1"}},{"base_weights":[1.2122797E-3,-1.6894539E-1,9.842522E-2,-3.100827E-1,1.8161625E-1,-1.511079E-1,1.1138346E-1,-3.0129582E-3,-6.415722E-2,4.6833914E-2,-3.3096343E-2,2.1810165E-2,-1.0163414E-2],"categories":[],"categories_nodes":[],"categories_segments":[],"categories_sizes":[],"default_left":[0,0,0,0,1,0,0,0,0,0,0,0,0],"id":19,"left_children":[1,3,5,7,9,-1,11,-1,-1,-1,-1,-1,-1],"loss_changes":[6.8772125E0,7.535618E0,5.6865416E0,1.0016674E1,6.624756E0,0E0,6.010025E0,0E0,0E0,0E0,0E0,0E0,0E0],"parents":[2147483647,0,0,1,1,2,2,3,3,4,4,6,6],"right_children":[2,4,6,8,10,-1,12,-1,-1,-1,-1,-1,-1],"split_conditions":[1E0,7.551E-1,5E-1,7.037E-1,7.586E-1,-1.511079E-1,7.719E-1,-3.0129582E-3,-6.415722E-2,4.6833914E-2,-3.3096343E-2,2.1810165E-2,-1.0163414E-2],"split_indices":[2,6,6,6,4,0,6,0,0,0,0,0,0],"split_type":[0,0,0,0,0,0,0,0,0,0,0,0,0],"sum_hessian":[4.1374915E2,1.5016624E2,2.635829E2,1.0714484E2,4.3021408E1,1.1818148E0,2.624011E2,5.8679268E1,4.8465565E1,2.7644278E1,1.5377131E1,1.7480359E2,8.759749E1],"tree_param":{"num_deleted":"0","num_feature":"7","num_nodes":"13","size_leaf_vector":"1"}},{"base_weights":[6.987724E-4,-9.0561676E-1,1.8420111E-2,-1.0305202E-1,-1.2115092E-2,-2.5616698E-2,3.4994397E-1,2.3596197E-2,-1.0531155E-2,-1.0793119E-2,4.768659E-2],"categories":[],"categories_nodes":[],"categories_segments":[],"categories_sizes":[],"default_left":[0,1,0,0,0,0,0,0,0,0,0],"id":20,"left_children":[1,3,5,-1,-1,7,9,-1,-1,-1,-1],"loss_changes":[6.6419787E0,6.522541E-1,5.930044E0,0E0,0E0,7.507688E0,2.8191247E0,0E0,0E0,0E0,0E0],"parents":[2147483647,0,0,1,1,2,2,5,5,6,6],"right_children":[2,4,6,-1,-1,8,10,-1,-1,-1,-1],"split_conditions":[2.2223334E-1,7.667E-1,1E0,-1.0305202E-1,-1.2115092E-2,6.265E-1,6.818E-1,2.3596197E-2,-1.0531155E-2,-1.0793119E-2,4.768659E-2],"split_indices":[0,6,0,0,0,5,3,0,0,0,0],"split_type":[0,0,0,0,0,0,0,0,0,0,0],"sum_hessian":[4.115052E2,6.9310303E0,4.0457416E2,5.7084637E0,1.2225664E0,3.5794986E2,4.6624287E1,8.313125E1,2.748186E2,1.0151617E1,3.647267E1],"tree_param":{"num_deleted":"0","num_feature":"7","num_nodes":"11","size_leaf_vector":"1"}},{"base_weights":[5.617816E-4,-8.527922E-1,1.6867736E-2,-9.7404236E-1,-1.14455735E-2,1.1448387E-1,-1.2422508E-1,-3.1953324E-2,-1.065073E-1,2.150693E-2,-1.649282E-2,-2.3778554E-2,3.3177834E-2],"categories":[],"categories_nodes":[],"categories_segments":[],"categories_sizes":[],"default_left":[0,1,1,0,0,1,0,0,0,0,0,0,0],"id":21,"left_children":[1,3,5,7,-1,9,11,-1,-1,-1,-1,-1,-1],"loss_changes":[5.7346406E0,5.802903E-1,5.583523E0,4.7194958E-2,0E0,6.767334E0,8.666656E0,0E0,0E0,0E0,0E0,0E0,0E0],"parents":[2147483647,0,0,1,1,2,2,3,3,5,5,6,6],"right_children":[2,4,6,8,-1,10,12,-1,-1,-1,-1,-1,-1],"split_conditions":[2.2223334E-1,7.667E-1,7.195E-1,6.59E-1,-1.14455735E-2,7.719E-1,7.606E-1,-3.1953324E-2,-1.065073E-1,2.150693E-2,-1.649282E-2,-2.3778554E-2,3.3177834E-2],"split_indices":[0,6,4,4,0,6,5,0,0,0,0,0,0],"split_type":[0,0,0,0,0,0,0,0,0,0,0,0,0],"sum_hessian":[4.1009293E2,6.7273083E0,4.0336563E2,5.5041704E0,1.2231377E0,2.385273E2,1.6483832E2,1.222755E0,4.2814155E0,1.7555838E2,6.296891E1,1.3235576E2,3.248257E1],"tree_param":{"num_deleted":"0","num_feature":"7","num_nodes":"13","size_leaf_vector":"1"}},{"base_weights":[2.5543853E-4,-4.089389E-2,3.2396418E-1,5.487284E-1,-7.032064E-2,1.3542312E-1,6.235435E-1,-2.454067E-2,7.008699E-2,1.5156453E-2,-1.3510394E-2,2.4877567E-2,-3.9982412E-2,7.946957E-2,-4.3522384E-2],"categories":[],"categories_nodes":[],"categories_segments":[],"categories_sizes":[],"default_left":[0,0,1,0,0,0,0,0,0,0,0,0,0,0,0],"id":22,"left_children":[1,3,5,7,9,11,13,-1,-1,-1,-1,-1,-1,-1,-1],"loss_changes":[5.474135E0,6.3649125E0,2.5334635E0,2.2798095E0,5.0252295E0,1.9028358E0,3.5397267E0,0E0,0E0,0E0,0E0,0E0,0E0,0E0,0E0],"parents":[2147483647,0,0,1,1,2,2,3,3,4,4,5,5,6,6],"right_children":[2,4,6,8,10,12,14,-1,-1,-1,-1,-1,-1,-1,-1],"split_conditions":[1E0,6.358E-1,7.284E-1,5E-1,6.265E-1,8.043E-1,7.953E-1,-2.454067E-2,7.008699E-2,1.5156453E-2,-1.3510394E-2,2.4877567E-2,-3.9982412E-2,7.946957E-2,-4.3522384E-2],"split_indices":[0,4,5,1,5,6,3,0,0,0,0,0,0,0,0],"split_type":[0,0,0,0,0,0,0,0,0,0,0,0,0,0,0],"sum_hessian":[4.0896426E2,3.636157E2,4.5348564E1,1.6445751E1,3.4716992E2,2.8723438E1,1.6625128E1,2.5455725E0,1.3900178E1,7.815311E1,2.690168E2,2.4145264E1,4.5781746E0,1.4526327E1,2.0988E0],"tree_param":{"num_deleted":"0","num_feature":"7","num_nodes":"15","size_leaf_vector":"1"}},{"base_weights":[5.7997426E-4,-8.007768E-1,1.554161E-2,-9.2099136E-1,-1.0060425E-2,1.0111326E-1,-1.069219E-1,-2.9801E-2,-1.00915074E-1,1.9217497E-2,-1.4640266E-2,-2.7777767E-2,1.5866643E-2],"categories":[],"categories_nodes":[],"categories_segments":[],"categories_sizes":[],"default_left":[0,1,1,0,0,1,1,0,0,0,0,0,0],"id":23,"left_children":[1,3,5,7,-1,9,11,-1,-1,-1,-1,-1,-1],"loss_changes":[4.9136496E0,5.395837E-1,4.226427E0,4.4614792E-2,0E0,5.377163E0,7.5746818E0,0E0,0E0,0E0,0E0,0E0,0E0],"parents":[2147483647,0,0,1,1,2,2,3,3,5,5,6,6],"right_children":[2,4,6,8,-1,10,12,-1,-1,-1,-1,-1,-1],"split_conditions":[2.2223334E-1,7.667E-1,7.195E-1,6.59E-1,-1.0060425E-2,7.719E-1,7.568E-1,-2.9801E-2,-1.00915074E-1,1.9217497E-2,-1.4640266E-2,-2.7777767E-2,1.5866643E-2],"split_indices":[0,6,4,4,0,6,6,0,0,0,0,0,0],"split_type":[0,0,0,0,0,0,0,0,0,0,0,0,0],"sum_hessian":[4.077877E2,6.511376E0,4.012763E2,5.288074E0,1.2233016E0,2.3632089E2,1.6495541E2,1.1985857E0,4.0894885E0,1.7292497E2,6.3395927E1,1.00352005E2,6.460341E1],"tree_param":{"num_deleted":"0","num_feature":"7","num_nodes":"13","size_leaf_vector":"1"}},{"base_weights":[2.1354132E-4,-3.6548037E-2,2.9737234E-1,5.0373E-1,-6.254679E-2,-1.20954566E-1,4.209487E-1,6.1570864E-2,-5.2156627E-2,-1.6322335E-3,-3.1641155E-2,2.3382666E-2,-7.354158E-2,6.4649045E-2,3.125903E-3],"categories":[],"categories_nodes":[],"categories_segments":[],"categories_sizes":[],"default_left":[0,0,0,0,1,0,1,0,0,0,0,0,0,0,0],"id":24,"left_children":[1,3,5,7,9,11,13,-1,-1,-1,-1,-1,-1,-1,-1],"loss_changes":[4.4647207E0,5.140475E0,2.3769343E0,2.2510319E0,4.0774465E0,2.5781193E0,3.0522323E0,0E0,0E0,0E0,0E0,0E0,0E0,0E0,0E0],"parents":[2147483647,0,0,1,1,2,2,3,3,4,4,5,5,6,6],"right_children":[2,4,6,8,10,12,14,-1,-1,-1,-1,-1,-1,-1,-1],"split_conditions":[1E0,6.358E-1,6.818E-1,7.84E-1,7.669E-1,7.073E-1,7.843E-1,6.1570864E-2,-5.2156627E-2,-1.6322335E-3,-3.1641155E-2,2.3382666E-2,-7.354158E-2,6.4649045E-2,3.125903E-3],"split_indices":[0,4,3,3,4,6,6,0,0,0,0,0,0,0,0],"split_type":[0,0,0,0,0,0,0,0,0,0,0,0,0,0,0],"sum_hessian":[4.0671155E2,3.627168E2,4.3994762E1,1.5809322E1,3.4690747E2,1.0037464E1,3.39573E1,1.461285E1,1.1964731E0,2.943717E2,5.2535778E1,6.7560678E0,3.2813969E0,2.1091265E1,1.2866034E1],"tree_param":{"num_deleted":"0","num_feature":"7","num_nodes":"15","size_leaf_vector":"1"}},{"base_weights":[3.3128442E-4,-7.5802726E-1,1.4125352E-2,-8.707874E-1,-1.0625319E-2,-3.309166E-2,2.0346127E-1,-2.8318504E-2,-9.54898E-2,3.464435E-3,-3.9179675E-2,2.7882595E-2,-8.7969266E-2],"categories":[],"categories_nodes":[],"categories_segments":[],"categories_sizes":[],"default_left":[0,1,1,0,0,0,0,0,0,0,0,0,0],"id":25,"left_children":[1,3,5,7,-1,9,11,-1,-1,-1,-1,-1,-1],"loss_changes":[4.2643633E0,4.4269276E-1,3.585757E0,2.9558182E-2,0E0,7.8201227E0,6.779909E0,0E0,0E0,0E0,0E0,0E0,0E0],"parents":[2147483647,0,0,1,1,2,2,3,3,5,5,6,6],"right_children":[2,4,6,8,-1,10,12,-1,-1,-1,-1,-1,-1],"split_conditions":[2.2223334E-1,7.667E-1,7.556E-1,6.59E-1,-1.0625319E-2,7.288E-1,8.571E-1,-2.8318504E-2,-9.54898E-2,3.464435E-3,-3.9179675E-2,2.7882595E-2,-8.7969266E-2],"split_indices":[0,6,5,4,0,5,3,0,0,0,0,0,0],"split_type":[0,0,0,0,0,0,0,0,0,0,0,0,0],"sum_hessian":[4.0562625E2,6.2824407E0,3.993438E2,5.0693855E0,1.213055E0,3.2029355E2,7.905029E1,1.1815834E0,3.8878024E0,2.7017795E2,5.011559E1,7.4602135E1,4.4481544E0],"tree_param":{"num_deleted":"0","num_feature":"7","num_nodes":"13","size_leaf_vector":"1"}},{"base_weights":[-2.0805586E-4,-7.818436E-2,1.2187209E-1,2.2962354E-1,-1.5135778E-1,8.301739E-1,-8.25656E-3,-2.1318588E-3,6.819638E-2,-4.7017887E-2,-6.0509937E-3,1.0881293E-1,3.0733317E-2,-2.37345E-2,1.6409367E-2],"categories":[],"categories_nodes":[],"categories_segments":[],"categories_sizes":[],"default_left":[0,0,0,0,1,0,1,0,0,0,0,0,0,0,0],"id":26,"left_children":[1,3,5,7,9,11,13,-1,-1,-1,-1,-1,-1,-1,-1],"loss_changes":[3.871912E0,5.6251264E0,1.4619237E1,5.4708643E0,5.797256E0,2.985468E0,5.366098E0,0E0,0E0,0E0,0E0,0E0,0E0,0E0,0E0],"parents":[2147483647,0,0,1,1,2,2,3,3,4,4,5,5,6,6],"right_children":[2,4,6,8,10,12,14,-1,-1,-1,-1,-1,-1,-1,-1],"split_conditions":[7.561E-1,6.154E-1,7.667E-1,6.024E-1,6.517E-1,1E0,6.79E-1,-2.1318588E-3,6.819638E-2,-4.7017887E-2,-6.0509937E-3,1.0881293E-1,3.0733317E-2,-2.37345E-2,1.6409367E-2],"split_indices":[6,5,6,5,5,1,5,0,0,0,0,0,0,0,0],"split_type":[0,0,0,0,0,0,0,0,0,0,0,0,0,0,0],"sum_hessian":[4.0473993E2,2.4720325E2,1.5753668E2,4.70686E1,2.0013464E2,2.3615541E1,1.3392113E2,3.0886662E1,1.618194E1,4.345575E1,1.566789E2,1.508957E1,8.525971E0,5.7334644E1,7.658649E1],"tree_param":{"num_deleted":"0","num_feature":"7","num_nodes":"15","size_leaf_vector":"1"}},{"base_weights":[4.1288475E-4,-3.3259623E-2,2.7741808E-1,1.692296E-1,-9.294891E-2,1.0151887E-1,5.7234323E-1,7.455918E-4,4.369903E-2,-6.2133994E-2,1.0848459E-3,1.9942377E-2,-3.975315E-2,7.9542115E-2,-2.5776377E-2],"categories":[],"categories_nodes":[],"categories_segments":[],"categories_sizes":[],"default_left":[0,0,1,0,1,0,0,0,0,0,0,0,0,0,0],"id":27,"left_children":[1,3,5,7,9,11,13,-1,-1,-1,-1,-1,-1,-1,-1],"loss_changes":[3.7835147E0,4.387138E0,2.222615E0,3.5788853E0,1.5362526E1,1.4842148E0,3.2066274E0,0E0,0E0,0E0,0E0,0E0,0E0,0E0,0E0],"parents":[2147483647,0,0,1,1,2,2,3,3,4,4,5,5,6,6],"right_children":[2,4,6,8,10,12,14,-1,-1,-1,-1,-1,-1,-1,-1],"split_conditions":[1E0,6.265E-1,7.284E-1,6.024E-1,6.517E-1,7.083E-1,8.125E-1,7.455918E-4,4.369903E-2,-6.2133994E-2,1.0848459E-3,1.9942377E-2,-3.975315E-2,7.9542115E-2,-2.5776377E-2],"split_indices":[0,5,5,5,5,5,5,0,0,0,0,0,0,0,0],"split_type":[0,0,0,0,0,0,0,0,0,0,0,0,0,0,0],"sum_hessian":[4.0364267E2,3.606788E2,4.2963867E1,8.169671E1,2.789821E2,2.775466E1,1.5209208E1,5.1568363E1,3.0128345E1,4.4986694E1,2.3399539E2,2.3704624E1,4.0500364E0,1.2020639E1,3.188568E0],"tree_param":{"num_deleted":"0","num_feature":"7","num_nodes":"15","size_leaf_vector":"1"}},{"base_weights":[5.701642E-4,-5.6529623E-1,1.5735103E-2,-7.187999E-1,3.1287294E-2,3.335449E-1,-1.47501705E-2,-2.0879969E-2,-1.1534752E-1,4.7977185E-3,9.627601E-2,-2.081695E-2,5.5355164E-3],"categories":[],"categories_nodes":[],"categories_segments":[],"categories_sizes":[],"default_left":[0,0,0,0,0,0,1,0,0,0,0,0,0],"id":28,"left_children":[1,3,5,7,-1,9,11,-1,-1,-1,-1,-1,-1],"loss_changes":[3.4688568E0,1.6471267E0,3.8187668E0,1.817267E0,0E0,6.152363E0,4.895045E0,0E0,0E0,0E0,0E0,0E0,0E0],"parents":[2147483647,0,0,1,1,2,2,3,3,5,5,6,6],"right_children":[2,4,6,8,-1,10,12,-1,-1,-1,-1,-1,-1],"split_conditions":[5.87E-1,6.964E-1,5.789E-1,5.8E-1,3.1287294E-2,5.658E-1,6.517E-1,-2.0879969E-2,-1.1534752E-1,4.7977185E-3,9.627601E-2,-2.081695E-2,5.5355164E-3],"split_indices":[3,6,5,6,0,5,5,0,0,0,0,0,0],"split_type":[0,0,0,0,0,0,0,0,0,0,0,0,0],"sum_hessian":[4.0219653E2,9.550526E0,3.9264603E2,8.283969E0,1.2665559E0,3.349706E1,3.5914896E2,4.4928784E0,3.791091E0,2.3780561E1,9.716499E0,9.50203E1,2.6412866E2],"tree_param":{"num_deleted":"0","num_feature":"7","num_nodes":"13","size_leaf_vector":"1"}},{"base_weights":[5.8036624E-4,-6.756677E-1,1.2215074E-2,-7.7999085E-1,-1.0729508E-2,4.0879536E-1,-6.7247096E-3,-2.195728E-2,-8.687146E-2,-6.7018205E-3,7.200546E-2,-4.028998E-3,2.7604451E-2],"categories":[],"categories_nodes":[],"categories_segments":[],"categories_sizes":[],"default_left":[0,1,0,0,0,0,0,0,0,0,0,0,0],"id":29,"left_children":[1,3,5,7,-1,9,11,-1,-1,-1,-1,-1,-1],"loss_changes":[3.1780162E0,3.2139993E-1,2.984963E0,8.8336945E-2,0E0,2.7308998E0,3.6170747E0,0E0,0E0,0E0,0E0,0E0,0E0],"parents":[2147483647,0,0,1,1,2,2,3,3,5,5,6,6],"right_children":[2,4,6,8,-1,10,12,-1,-1,-1,-1,-1,-1],"split_conditions":[2.2223334E-1,7.667E-1,6.358E-1,6.59E-1,-1.0729508E-2,6.135E-1,1E0,-2.195728E-2,-8.687146E-2,-6.7018205E-3,7.200546E-2,-4.028998E-3,2.7604451E-2],"split_indices":[0,6,4,4,0,4,0,0,0,0,0,0,0],"split_type":[0,0,0,0,0,0,0,0,0,0,0,0,0],"sum_hessian":[4.018703E2,5.8318233E0,3.9603848E2,4.6128287E0,1.2189945E0,1.711356E1,3.7892493E2,1.1054041E0,3.5074246E0,7.0781183E0,1.0035441E1,3.3948492E2,3.9440014E1],"tree_param":{"num_deleted":"0","num_feature":"7","num_nodes":"13","size_leaf_vector":"1"}},{"base_weights":[4.9959257E-4,-6.6243984E-2,1.0597178E-1,6.614123E-2,-2.3805632E-1,7.8701794E-1,-1.2625085E-2,-1.910013E-3,4.624675E-2,1.969611E-3,-4.8953682E-2,1.0511731E-1,2.680846E-2,-1.3886024E-2,2.513274E-2],"categories":[],"categories_nodes":[],"categories_segments":[],"categories_sizes":[],"default_left":[0,0,0,0,1,0,1,0,0,0,0,0,0,0,0],"id":30,"left_children":[1,3,5,7,9,11,13,-1,-1,-1,-1,-1,-1,-1,-1],"loss_changes":[2.8366547E0,5.6291456E0,1.2623572E1,4.7443285E0,6.98556E0,2.8953218E0,4.499461E0,0E0,0E0,0E0,0E0,0E0,0E0,0E0,0E0],"parents":[2147483647,0,0,1,1,2,2,3,3,4,4,5,5,6,6],"right_children":[2,4,6,8,10,12,14,-1,-1,-1,-1,-1,-1,-1,-1],"split_conditions":[7.561E-1,6.97E-1,7.667E-1,6.829E-1,7.037E-1,1E0,7.419E-1,-1.910013E-3,4.624675E-2,1.969611E-3,-4.8953682E-2,1.0511731E-1,2.680846E-2,-1.3886024E-2,2.513274E-2],"split_indices":[6,3,6,3,4,1,5,0,0,0,0,0,0,0,0],"split_type":[0,0,0,0,0,0,0,0,0,0,0,0,0,0,0],"sum_hessian":[4.0096008E2,2.4579265E2,1.5516745E2,1.3917232E2,1.0662032E2,2.2177338E1,1.3299011E2,1.1532103E2,2.3851297E1,5.3108734E1,5.3511585E1,1.4016705E1,8.160632E0,9.028519E1,4.270493E1],"tree_param":{"num_deleted":"0","num_feature":"7","num_nodes":"15","size_leaf_vector":"1"}},{"base_weights":[1.0112884E-3,1.136379E-2,-6.923271E-1,-1.3499596E-2,5.3855455E-1,1.8475438E-2,-1.1627078E0,4.4776066E-4,-6.4197175E-2,6.623397E-2,-6.8060465E-2,-2.313972E-2,-1.4192106E-1],"categories":[],"categories_nodes":[],"categories_segments":[],"categories_sizes":[],"default_left":[0,0,0,0,0,0,0,0,0,0,0,0,0],"id":31,"left_children":[1,3,5,7,9,-1,11,-1,-1,-1,-1,-1,-1],"loss_changes":[2.883982E0,5.1951265E0,2.6535056E0,4.284155E0,3.1445756E0,0E0,6.234827E-1,0E0,0E0,0E0,0E0,0E0,0E0],"parents":[2147483647,0,0,1,1,2,2,3,3,4,4,6,6],"right_children":[2,4,6,8,10,-1,12,-1,-1,-1,-1,-1,-1],"split_conditions":[8.571E-1,8.085E-1,8.929E-1,8E-1,8.21E-1,1.8475438E-2,7.167E-1,4.4776066E-4,-6.4197175E-2,6.623397E-2,-6.8060465E-2,-2.313972E-2,-1.4192106E-1],"split_indices":[3,3,6,3,4,0,4,0,0,0,0,0,0],"split_type":[0,0,0,0,0,0,0,0,0,0,0,0,0],"sum_hessian":[3.9969656E2,3.947855E2,4.911084E0,3.7793567E2,1.684982E1,1.9263663E0,2.9847176E0,3.6839087E2,9.544802E0,1.5711323E1,1.1384968E0,1.0552907E0,1.929427E0],"tree_param":{"num_deleted":"0","num_feature":"7","num_nodes":"13","size_leaf_vector":"1"}},{"base_weights":[4.6169662E-4,-5.0223917E-1,1.4310236E-2,-8.3529964E-2,-8.758363E-1,3.572837E-1,-1.1422E-2,-6.655788E-2,6.5082215E-2,-4.29002E-2,-1.3242318E-1,4.7776468E-2,-6.77843E-2,-1.49194915E-2,5.7024616E-3],"categories":[],"categories_nodes":[],"categories_segments":[],"categories_sizes":[],"default_left":[0,0,0,0,0,1,1,0,0,0,0,0,0,0,0],"id":32,"left_children":[1,3,5,7,9,11,13,-1,-1,-1,-1,-1,-1,-1,-1],"loss_changes":[2.7936373E0,1.6097696E0,3.4504056E0,3.073986E0,5.499177E-1,3.7265291E0,3.4430718E0,0E0,0E0,0E0,0E0,0E0,0E0,0E0,0E0],"parents":[2147483647,0,0,1,1,2,2,3,3,4,4,5,5,6,6],"right_children":[2,4,6,8,10,12,14,-1,-1,-1,-1,-1,-1,-1,-1],"split_conditions":[5.87E-1,5.181E-1,6.301E-1,5E-1,5.8E-1,7.869E-1,6.585E-1,-6.655788E-2,6.5082215E-2,-4.29002E-2,-1.3242318E-1,4.7776468E-2,-6.77843E-2,-1.49194915E-2,5.7024616E-3],"split_indices":[3,5,3,1,6,4,5,0,0,0,0,0,0,0,0],"split_type":[0,0,0,0,0,0,0,0,0,0,0,0,0,0,0],"sum_hessian":[3.9925583E2,9.758447E0,3.8949738E2,5.1783695E0,4.580077E0,2.6284071E1,3.6321332E2,2.9409885E0,2.2373812E0,3.2741127E0,1.3059644E0,2.4026066E1,2.2580047E0,1.2016308E2,2.4305025E2],"tree_param":{"num_deleted":"0","num_feature":"7","num_nodes":"15","size_leaf_vector":"1"}},{"base_weights":[-3.33401E-5,-6.187203E-1,1.0307144E-2,-3.251669E-1,-9.9125095E-2,1.6523892E-1,-3.3278663E-2,8.611872E-3,-4.599243E-2,3.729516E-2,-5.1693134E-3,-4.453926E-2,3.2175712E-3],"categories":[],"categories_nodes":[],"categories_segments":[],"categories_sizes":[],"default_left":[0,0,0,0,0,0,0,0,0,0,0,0,0],"id":33,"left_children":[1,3,5,7,-1,9,11,-1,-1,-1,-1,-1,-1],"loss_changes":[2.564367E0,3.982687E-1,2.6678097E0,3.2634163E-1,0E0,3.9272041E0,8.336641E0,0E0,0E0,0E0,0E0,0E0,0E0],"parents":[2147483647,0,0,1,1,2,2,3,3,5,5,6,6],"right_children":[2,4,6,8,-1,10,12,-1,-1,-1,-1,-1,-1],"split_conditions":[2.2223334E-1,3.333E-1,6.265E-1,6.59E-1,-9.9125095E-2,6.592E-1,6.517E-1,8.611872E-3,-4.599243E-2,3.729516E-2,-5.1693134E-3,-4.453926E-2,3.2175712E-3],"split_indices":[0,1,5,4,0,3,5,0,0,0,0,0,0],"split_type":[0,0,0,0,0,0,0,0,0,0,0,0,0],"sum_hessian":[3.9884067E2,5.589305E0,3.9325137E2,4.1734753E0,1.41583E0,8.572805E1,3.0752332E2,1.1190423E0,3.0544329E0,4.3427227E1,4.2300827E1,4.1352844E1,2.6617047E2],"tree_param":{"num_deleted":"0","num_feature":"7","num_nodes":"13","size_leaf_vector":"1"}},{"base_weights":[-3.4228378E-4,-4.9280822E-1,1.3269544E-2,3.344611E-2,-6.2278587E-1,2.985027E-1,-1.3600911E-2,1.4958881E-2,-7.9781115E-2,3.0633376E-3,9.1894045E-2,-5.1447976E-2,1.017681E-3],"categories":[],"categories_nodes":[],"categories_segments":[],"categories_sizes":[],"default_left":[0,0,0,0,0,0,0,0,0,0,0,0,0],"id":34,"left_children":[1,3,5,-1,7,9,11,-1,-1,-1,-1,-1,-1],"loss_changes":[2.6816542E0,1.365273E0,2.9878721E0,0E0,1.42365E0,5.5495872E0,4.2540364E0,0E0,0E0,0E0,0E0,0E0,0E0],"parents":[2147483647,0,0,1,1,2,2,4,4,5,5,6,6],"right_children":[2,4,6,-1,8,10,12,-1,-1,-1,-1,-1,-1],"split_conditions":[5.87E-1,6.5E-1,5.789E-1,3.344611E-2,4E-1,5.658E-1,6.024E-1,1.4958881E-2,-7.9781115E-2,3.0633376E-3,9.1894045E-2,-5.1447976E-2,1.017681E-3],"split_indices":[3,4,5,0,5,5,5,0,0,0,0,0,0],"split_type":[0,0,0,0,0,0,0,0,0,0,0,0,0],"sum_hessian":[3.9807068E2,9.759909E0,3.8831076E2,1.1116111E0,8.648297E0,3.2561153E1,3.557496E2,1.6245596E0,7.023738E0,2.3475262E1,9.085894E0,1.5187484E1,3.405621E2],"tree_param":{"num_deleted":"0","num_feature":"7","num_nodes":"13","size_leaf_vector":"1"}},{"base_weights":[-1.7356801E-4,9.645041E-3,-6.4727134E-1,-1.2533632E-2,4.9662742E-1,1.8843187E-2,-1.06744364E-1,-3.8157813E-3,3.8146745E-2,6.196065E-2,-6.3986555E-2],"categories":[],"categories_nodes":[],"categories_segments":[],"categories_sizes":[],"default_left":[0,0,0,1,0,0,0,0,0,0,0],"id":35,"left_children":[1,3,5,7,9,-1,-1,-1,-1,-1,-1],"loss_changes":[2.5406706E0,4.2608004E0,2.299827E0,3.8281622E0,2.7981086E0,0E0,0E0,0E0,0E0,0E0,0E0],"parents":[2147483647,0,0,1,1,2,2,3,3,4,4],"right_children":[2,4,6,8,10,-1,-1,-1,-1,-1,-1],"split_conditions":[8.571E-1,8.085E-1,6.928E-1,8E-1,8.21E-1,1.8843187E-2,-1.06744364E-1,-3.8157813E-3,3.8146745E-2,6.196065E-2,-6.3986555E-2],"split_indices":[3,3,4,4,4,0,0,0,0,0,0],"split_type":[0,0,0,0,0,0,0,0,0,0,0],"sum_hessian":[3.9789627E2,3.929195E2,4.976791E0,3.7673605E2,1.6183455E1,1.8495862E0,3.1272047E0,3.5457886E2,2.2157171E1,1.5013646E1,1.1698079E0],"tree_param":{"num_deleted":"0","num_feature":"7","num_nodes":"11","size_leaf_vector":"1"}},{"base_weights":[-2.092781E-4,-2.6763434E-2,2.270696E-1,1.5737697E-1,-8.0818854E-2,-1.5983213E-1,3.4941947E-1,3.0232067E-4,4.146609E-2,-4.9927082E-2,-4.4940063E-4,1.789219E-2,-6.986358E-2,5.8286894E-2,-2.7520398E-3],"categories":[],"categories_nodes":[],"categories_segments":[],"categories_sizes":[],"default_left":[0,0,0,0,0,0,1,0,0,0,0,0,0,0,0],"id":36,"left_children":[1,3,5,7,9,11,13,-1,-1,-1,-1,-1,-1,-1,-1],"loss_changes":[2.4112322E0,3.5734422E0,2.034353E0,3.2361457E0,8.851211E0,2.083054E0,2.8379138E0,0E0,0E0,0E0,0E0,0E0,0E0,0E0,0E0],"parents":[2147483647,0,0,1,1,2,2,3,3,4,4,5,5,6,6],"right_children":[2,4,6,8,10,12,14,-1,-1,-1,-1,-1,-1,-1,-1],"split_conditions":[1E0,6.265E-1,6.818E-1,6.024E-1,6.517E-1,7.073E-1,7.843E-1,3.0232067E-4,4.146609E-2,-4.9927082E-2,-4.4940063E-4,1.789219E-2,-6.986358E-2,5.8286894E-2,-2.7520398E-3],"split_indices":[0,5,3,5,5,6,6,0,0,0,0,0,0,0,0],"split_type":[0,0,0,0,0,0,0,0,0,0,0,0,0,0,0],"sum_hessian":[3.975213E2,3.567255E2,4.0795822E1,8.052041E1,2.7620508E2,9.727768E0,3.1068054E1,5.0959656E1,2.9560753E1,4.1752895E1,2.3445218E2,6.3827586E0,3.3450096E0,1.8848396E1,1.2219658E1],"tree_param":{"num_deleted":"0","num_feature":"7","num_nodes":"15","size_leaf_vector":"1"}},{"base_weights":[-7.538697E-5,-6.037483E-2,9.574329E-2,6.6917844E-2,-2.2385903E-1,6.703366E-1,-2.779805E-2,9.2957536E-4,5.8576014E-2,-3.963556E-4,-4.7890116E-2,-1.2123993E-2,8.468111E-2,-4.770112E-2,2.7385175E-3],"categories":[],"categories_nodes":[],"categories_segments":[],"categories_sizes":[],"default_left":[0,0,0,0,1,0,0,0,0,0,0,0,0,0,0],"id":37,"left_children":[1,3,5,7,9,11,13,-1,-1,-1,-1,-1,-1,-1,-1],"loss_changes":[2.3007772E0,5.10109E0,1.0936676E1,4.1257267E0,6.0113826E0,3.9102974E0,3.1748643E0,0E0,0E0,0E0,0E0,0E0,0E0,0E0,0E0],"parents":[2147483647,0,0,1,1,2,2,3,3,4,4,5,5,6,6],"right_children":[2,4,6,8,10,12,14,-1,-1,-1,-1,-1,-1,-1,-1],"split_conditions":[7.561E-1,6.97E-1,7.701E-1,6.885E-1,7.16E-1,6.778E-1,6.667E-1,9.2957536E-4,5.8576014E-2,-3.963556E-4,-4.7890116E-2,-1.2123993E-2,8.468111E-2,-4.770112E-2,2.7385175E-3],"split_indices":[6,3,6,3,4,3,4,0,0,0,0,0,0,0,0],"split_type":[0,0,0,0,0,0,0,0,0,0,0,0,0,0,0],"sum_hessian":[3.9620853E2,2.4340302E2,1.5280551E2,1.3718117E2,1.0622184E2,2.6257116E1,1.2654839E2,1.2438502E2,1.2796156E1,5.758662E1,4.8635223E1,4.843697E0,2.141342E1,1.3008658E1,1.13539734E2],"tree_param":{"num_deleted":"0","num_feature":"7","num_nodes":"15","size_leaf_vector":"1"}},{"base_weights":[2.1227833E-4,-5.7416147E-1,9.641158E-3,-2.8728566E-1,-9.328473E-2,1.6126704E-1,-3.4438487E-2,1.06083555E-2,-4.2499445E-2,-3.548334E-2,3.1497046E-2,1.0902407E-2,-1.9725671E-2],"categories":[],"categories_nodes":[],"categories_segments":[],"categories_sizes":[],"default_left":[0,0,0,0,0,0,1,0,0,0,0,0,0],"id":38,"left_children":[1,3,5,7,-1,9,11,-1,-1,-1,-1,-1,-1],"loss_changes":[2.1507332E0,3.919921E-1,2.6167963E0,3.1640983E-1,0E0,7.1062546E0,7.1112127E0,0E0,0E0,0E0,0E0,0E0,0E0],"parents":[2147483647,0,0,1,1,2,2,3,3,5,5,6,6],"right_children":[2,4,6,8,-1,10,12,-1,-1,-1,-1,-1,-1],"split_conditions":[2.2223334E-1,3.333E-1,6.667E-1,6.59E-1,-9.328473E-2,6.774E-1,7.099E-1,1.06083555E-2,-4.2499445E-2,-3.548334E-2,3.1497046E-2,1.0902407E-2,-1.9725671E-2],"split_indices":[0,1,1,4,0,4,4,0,0,0,0,0,0],"split_type":[0,0,0,0,0,0,0,0,0,0,0,0,0],"sum_hessian":[3.9510712E2,5.413962E0,3.8969315E2,4.008731E0,1.4052309E0,8.717356E1,3.025196E2,1.0990149E0,2.909716E0,1.9703896E1,6.7469666E1,1.6099442E2,1.4152516E2],"tree_param":{"num_deleted":"0","num_feature":"7","num_nodes":"13","size_leaf_vector":"1"}},{"base_weights":[-1.0362157E-4,-4.3271244E-1,1.2175829E-2,-2.0264888E-1,-1.0291769E-1,2.8549328E-1,-1.3537978E-2,6.159013E-2,-7.052946E-2,3.7403007E-3,8.88365E-2,-4.042027E-2,1.1257764E-3],"categories":[],"categories_nodes":[],"categories_segments":[],"categories_sizes":[],"default_left":[0,0,0,1,0,0,1,0,0,0,0,0,0],"id":39,"left_children":[1,3,5,7,-1,9,11,-1,-1,-1,-1,-1,-1],"loss_changes":[2.1087754E0,1.294982E0,2.7168245E0,4.199964E0,0E0,4.9382553E0,3.4315593E0,0E0,0E0,0E0,0E0,0E0,0E0],"parents":[2147483647,0,0,1,1,2,2,3,3,5,5,6,6],"right_children":[2,4,6,8,-1,10,12,-1,-1,-1,-1,-1,-1],"split_conditions":[5.87E-1,6.173E-1,5.789E-1,5.8E-1,-1.0291769E-1,5.658E-1,6.024E-1,6.159013E-2,-7.052946E-2,3.7403007E-3,8.88365E-2,-4.042027E-2,1.1257764E-3],"split_indices":[3,5,5,6,0,5,5,0,0,0,0,0,0],"split_type":[0,0,0,0,0,0,0,0,0,0,0,0,0],"sum_hessian":[3.9497662E2,9.956799E0,3.8501984E2,8.152162E0,1.8046371E0,3.223926E1,3.5278058E2,3.015748E0,5.136414E0,2.3592607E1,8.646652E0,2.0141626E1,3.3263895E2],"tree_param":{"num_deleted":"0","num_feature":"7","num_nodes":"13","size_leaf_vector":"1"}},{"base_weights":[-1.4748667E-4,3.315059E-1,-1.5691115E-2,-7.08984E-2,6.0153085E-1,-4.2916566E-2,2.2684553E-1,2.5133703E-2,-1.1508554E-1,7.1416296E-2,-1.9240102E-2,1.1309651E-2,-9.888704E-3,-2.8820554E-2,3.3138756E-2],"categories":[],"categories_nodes":[],"categories_segments":[],"categories_sizes":[],"default_left":[0,0,0,0,0,0,0,0,0,0,0,0,0,0,0],"id":40,"left_children":[1,3,5,7,9,11,13,-1,-1,-1,-1,-1,-1,-1,-1],"loss_changes":[2.0452232E0,1.9726032E0,2.5121224E0,3.0826535E0,1.0973127E0,2.9937415E0,2.1634576E0,0E0,0E0,0E0,0E0,0E0,0E0,0E0,0E0],"parents":[2147483647,0,0,1,1,2,2,3,3,4,4,5,5,6,6],"right_children":[2,4,6,8,10,12,14,-1,-1,-1,-1,-1,-1,-1,-1],"split_conditions":[6.358E-1,6.135E-1,1E0,7.083E-1,7.792E-1,6.667E-1,6.693E-1,2.5133703E-2,-1.1508554E-1,7.1416296E-2,-1.9240102E-2,1.1309651E-2,-9.888704E-3,-2.8820554E-2,3.3138756E-2],"split_indices":[4,4,0,5,6,1,3,0,0,0,0,0,0,0,0],"split_type":[0,0,0,0,0,0,0,0,0,0,0,0,0,0,0],"sum_hessian":[3.9472906E2,1.6761547E1,3.7796753E2,7.027004E0,9.734544E0,3.4056152E2,3.740598E1,6.003086E0,1.0239176E0,8.613108E0,1.121436E0,8.9649704E1,2.5091183E2,6.014969E0,3.139101E1],"tree_param":{"num_deleted":"0","num_feature":"7","num_nodes":"15","size_leaf_vector":"1"}},{"base_weights":[-1.19652344E-4,-3.522348E-2,1.4697517E-1,2.2038842E-2,-3.3176988E-1,2.1398625E-1,-7.2553414E-1,-6.108754E-4,5.6818556E-2,-6.947418E-2,2.8005986E-2,-2.9968543E-2,3.0200848E-2,1.815679E-2,-1.20662786E-1],"categories":[],"categories_nodes":[],"categories_segments":[],"categories_sizes":[],"default_left":[1,0,0,1,0,0,0,0,0,0,0,0,0,0,0],"id":41,"left_children":[1,3,5,7,9,11,13,-1,-1,-1,-1,-1,-1,-1,-1],"loss_changes":[2.0472589E0,5.442706E0,4.6215515E0,4.142128E0,1.1713053E1,3.3329706E0,2.6961803E0,0E0,0E0,0E0,0E0,0E0,0E0,0E0,0E0],"parents":[2147483647,0,0,1,1,2,2,3,3,4,4,5,5,6,6],"right_children":[2,4,6,8,10,12,14,-1,-1,-1,-1,-1,-1,-1,-1],"split_conditions":[7.556E-1,7.288E-1,8.571E-1,8E-1,7.778E-1,6.707E-1,6.928E-1,-6.108754E-4,5.6818556E-2,-6.947418E-2,2.8005986E-2,-2.9968543E-2,3.0200848E-2,1.815679E-2,-1.20662786E-1],"split_indices":[5,5,3,4,0,4,4,0,0,0,0,0,0,0,0],"split_type":[0,0,0,0,0,0,0,0,0,0,0,0,0,0,0],"sum_hessian":[3.9447702E2,3.1908798E2,7.5389046E1,2.6822092E2,5.0867065E1,7.071285E1,4.676191E0,2.560151E2,1.2205825E1,3.1841423E1,1.9025642E1,9.992856E0,6.0719997E1,1.8363488E0,2.839842E0],"tree_param":{"num_deleted":"0","num_feature":"7","num_nodes":"15","size_leaf_vector":"1"}},{"base_weights":[-2.2450052E-4,-5.4290082E-2,8.622884E-2,5.9018925E-2,-1.9946264E-1,7.1123415E-1,-1.2454683E-2,7.2556315E-4,5.4234665E-2,-4.4513535E-2,5.00953E-4,9.9480234E-2,1.6713796E-2,-1.1331012E-2,2.079606E-2],"categories":[],"categories_nodes":[],"categories_segments":[],"categories_sizes":[],"default_left":[0,0,0,0,0,0,1,0,0,0,0,0,0,0,0],"id":42,"left_children":[1,3,5,7,9,11,13,-1,-1,-1,-1,-1,-1,-1,-1],"loss_changes":[1.8478562E0,4.0126643E0,9.390584E0,3.4330125E0,5.3696175E0,3.0366106E0,2.96571E0,0E0,0E0,0E0,0E0,0E0,0E0,0E0,0E0],"parents":[2147483647,0,0,1,1,2,2,3,3,4,4,5,5,6,6],"right_children":[2,4,6,8,10,12,14,-1,-1,-1,-1,-1,-1,-1,-1],"split_conditions":[7.561E-1,6.97E-1,7.667E-1,6.885E-1,1E0,1E0,7.419E-1,7.2556315E-4,5.4234665E-2,-4.4513535E-2,5.00953E-4,9.9480234E-2,1.6713796E-2,-1.1331012E-2,2.079606E-2],"split_indices":[6,3,6,3,2,1,5,0,0,0,0,0,0,0,0],"split_type":[0,0,0,0,0,0,0,0,0,0,0,0,0,0,0],"sum_hessian":[3.9333365E2,2.4222482E2,1.5110883E2,1.363755E2,1.05849335E2,1.9759047E1,1.3134978E2,1.2409972E2,1.2275783E1,4.7545982E1,5.8303352E1,1.24447975E1,7.3142495E0,9.044897E1,4.0900814E1],"tree_param":{"num_deleted":"0","num_feature":"7","num_nodes":"15","size_leaf_vector":"1"}},{"base_weights":[2.7680112E-4,-5.311566E-1,8.987042E-3,-6.6055197E-1,-6.862143E-4,1.4196731E-1,-2.9570285E-2,-3.096116E-2,-8.768648E-2,-3.1568576E-2,2.8084958E-2,1.7341932E-2,-1.2826911E-2],"categories":[],"categories_nodes":[],"categories_segments":[],"categories_sizes":[],"default_left":[0,1,0,0,0,0,0,0,0,0,0,0,0],"id":43,"left_children":[1,3,5,7,-1,9,11,-1,-1,-1,-1,-1,-1],"loss_changes":[1.8224295E0,4.2617953E-1,1.9901576E0,1.1427164E-1,0E0,5.6332073E0,6.0545774E0,0E0,0E0,0E0,0E0,0E0,0E0],"parents":[2147483647,0,0,1,1,2,2,3,3,5,5,6,6],"right_children":[2,4,6,8,-1,10,12,-1,-1,-1,-1,-1,-1],"split_conditions":[2.2223334E-1,7.667E-1,6.667E-1,6.538E-1,-6.862143E-4,6.774E-1,6.914E-1,-3.096116E-2,-8.768648E-2,-3.1568576E-2,2.8084958E-2,1.7341932E-2,-1.2826911E-2],"split_indices":[0,6,1,6,0,4,4,0,0,0,0,0,0],"split_type":[0,0,0,0,0,0,0,0,0,0,0,0,0],"sum_hessian":[3.916745E2,5.3488235E0,3.8632565E2,4.081601E0,1.2672224E0,8.623343E1,3.0009222E2,2.483595E0,1.598006E0,1.9780035E1,6.645339E1,9.792895E1,2.021633E2],"tree_param":{"num_deleted":"0","num_feature":"7","num_nodes":"13","size_leaf_vector":"1"}},{"base_weights":[-9.141005E-6,9.287853E-3,-4.821653E-1,-1.15091195E-2,5.160992E-1,7.4936055E-2,-8.4911734E-1,4.6882205E-4,-5.7014305E-2,6.5458804E-2,-6.038605E-2,3.0550912E-2,-1.202565E-1],"categories":[],"categories_nodes":[],"categories_segments":[],"categories_sizes":[],"default_left":[0,0,0,0,0,0,1,0,0,0,0,0,0],"id":44,"left_children":[1,3,5,7,9,-1,11,-1,-1,-1,-1,-1,-1],"loss_changes":[1.7639499E0,4.0751405E0,4.0003977E0,3.3671098E0,2.7589693E0,0E0,2.8992705E0,0E0,0E0,0E0,0E0,0E0,0E0],"parents":[2147483647,0,0,1,1,2,2,3,3,4,4,6,6],"right_children":[2,4,6,8,10,-1,12,-1,-1,-1,-1,-1,-1],"split_conditions":[8.492E-1,8.085E-1,8.5E-1,8E-1,8.21E-1,7.4936055E-2,8.333E-1,4.6882205E-4,-5.7014305E-2,6.5458804E-2,-6.038605E-2,3.0550912E-2,-1.202565E-1],"split_indices":[3,3,6,3,4,0,5,0,0,0,0,0,0],"split_type":[0,0,0,0,0,0,0,0,0,0,0,0,0],"sum_hessian":[3.9151114E2,3.85067E2,6.4441714E0,3.708274E2,1.4239589E1,1.2401131E0,5.204058E0,3.6134204E2,9.485344E0,1.3042358E1,1.1972301E0,1.2514641E0,3.952594E0],"tree_param":{"num_deleted":"0","num_feature":"7","num_nodes":"13","size_leaf_vector":"1"}},{"base_weights":[-9.481414E-5,-3.937874E-1,1.1302167E-2,-3.2477174E-2,-7.231633E-1,3.2706848E-1,-1.1906175E-2,-5.491321E-2,6.3748434E-2,-3.368197E-2,-1.1182243E-1,6.0566097E-2,-4.371566E-3,-5.6241333E-2,1.8980498E-4],"categories":[],"categories_nodes":[],"categories_segments":[],"categories_sizes":[],"default_left":[0,0,0,0,0,1,0,0,0,0,0,0,0,0,0],"id":45,"left_children":[1,3,5,7,9,11,13,-1,-1,-1,-1,-1,-1,-1,-1],"loss_changes":[1.763829E0,1.2927076E0,2.8037436E0,2.5380938E0,4.99233E-1,2.7321477E0,2.7129703E0,0E0,0E0,0E0,0E0,0E0,0E0,0E0,0E0],"parents":[2147483647,0,0,1,1,2,2,3,3,4,4,5,5,6,6],"right_children":[2,4,6,8,10,12,14,-1,-1,-1,-1,-1,-1,-1,-1],"split_conditions":[5.87E-1,5.181E-1,6.301E-1,5E-1,5.8E-1,6.071E-1,6.4E-1,-5.491321E-2,6.3748434E-2,-3.368197E-2,-1.1182243E-1,6.0566097E-2,-4.371566E-3,-5.6241333E-2,1.8980498E-4],"split_indices":[3,5,3,1,6,5,3,0,0,0,0,0,0,0,0],"split_type":[0,0,0,0,0,0,0,0,0,0,0,0,0,0,0],"sum_hessian":[3.9111383E2,1.0059814E1,3.8105402E2,5.32125E0,4.738565E0,2.519295E1,3.5586105E2,3.106195E0,2.215055E0,3.3323362E0,1.4062288E0,1.4023093E1,1.1169856E1,7.7329235E0,3.4812814E2],"tree_param":{"num_deleted":"0","num_feature":"7","num_nodes":"15","size_leaf_vector":"1"}},{"base_weights":[-3.7878027E-4,1.2009275E-1,-3.402206E-2,3.0643737E-1,-7.68586E-2,-3.889016E-1,2.7388252E-2,2.4613081E-3,6.853863E-2,-8.683988E-2,5.3471853E-3,-2.8611075E-3,-6.0062237E-2,-9.9282645E-2,4.1422383E-3],"categories":[],"categories_nodes":[],"categories_segments":[],"categories_sizes":[],"default_left":[0,0,0,0,0,0,0,0,0,0,0,0,0,0,0],"id":46,"left_children":[1,3,5,7,9,11,13,-1,-1,-1,-1,-1,-1,-1,-1],"loss_changes":[1.5917207E0,3.1699777E0,6.700772E0,4.709173E0,4.4286594E0,3.4422421E0,3.801417E0,0E0,0E0,0E0,0E0,0E0,0E0,0E0,0E0],"parents":[2147483647,0,0,1,1,2,2,3,3,4,4,5,5,6,6],"right_children":[2,4,6,8,10,12,14,-1,-1,-1,-1,-1,-1,-1,-1],"split_conditions":[6.265E-1,6.592E-1,6.517E-1,6E-1,7.26E-1,5E-1,6.182E-1,2.4613081E-3,6.853863E-2,-8.683988E-2,5.3471853E-3,-2.8611075E-3,-6.0062237E-2,-9.9282645E-2,4.1422383E-3],"split_indices":[5,3,5,5,6,1,3,0,0,0,0,0,0,0,0],"split_type":[0,0,0,0,0,0,0,0,0,0,0,0,0,0,0],"sum_hessian":[3.907129E2,8.473173E1,3.0598117E2,4.3252586E1,4.147914E1,4.435109E1,2.6163007E2,2.5415804E1,1.7836782E1,5.063538E0,3.6415604E1,1.683599E1,2.7515097E1,2.6037817E0,2.590263E2],"tree_param":{"num_deleted":"0","num_feature":"7","num_nodes":"15","size_leaf_vector":"1"}},{"base_weights":[-6.409991E-4,-4.9985665E-1,7.432049E-3,-6.319871E-1,6.700625E-4,3.198463E-1,-6.610388E-3,-2.8940035E-2,-8.4641926E-2,-8.71771E-3,6.1455246E-2,1.3557658E-2,-4.8593655E-3],"categories":[],"categories_nodes":[],"categories_segments":[],"categories_sizes":[],"default_left":[0,1,0,0,0,0,0,0,0,0,0,0,0],"id":47,"left_children":[1,3,5,7,-1,9,11,-1,-1,-1,-1,-1,-1],"loss_changes":[1.5802983E0,4.2189753E-1,1.695312E0,1.19392276E-1,0E0,2.0474102E0,2.2172697E0,0E0,0E0,0E0,0E0,0E0,0E0],"parents":[2147483647,0,0,1,1,2,2,3,3,5,5,6,6],"right_children":[2,4,6,8,-1,10,12,-1,-1,-1,-1,-1,-1],"split_conditions":[2.2223334E-1,7.667E-1,6.358E-1,6.538E-1,6.700625E-4,6.135E-1,6.667E-1,-2.8940035E-2,-8.4641926E-2,-8.71771E-3,6.1455246E-2,1.3557658E-2,-4.8593655E-3],"split_indices":[0,6,4,6,0,4,1,0,0,0,0,0,0],"split_type":[0,0,0,0,0,0,0,0,0,0,0,0,0],"sum_hessian":[3.9019308E2,5.2401404E0,3.8495297E2,3.959684E0,1.2804568E0,1.5621901E1,3.6933105E2,2.428851E0,1.530833E0,6.856487E0,8.765413E0,8.3684166E1,2.8564688E2],"tree_param":{"num_deleted":"0","num_feature":"7","num_nodes":"13","size_leaf_vector":"1"}},{"base_weights":[-6.8293256E-4,-5.146656E-2,8.057481E-2,8.962644E-3,-2.967155E-1,6.7271E-1,-8.530998E-3,1.4061282E-2,-1.5295269E-2,-7.605282E-2,2.3452511E-2,9.157473E-2,6.4982786E-3,-9.885395E-3,1.9265033E-2],"categories":[],"categories_nodes":[],"categories_segments":[],"categories_sizes":[],"default_left":[0,0,0,0,0,0,1,0,0,0,0,0,0,0,0],"id":48,"left_children":[1,3,5,7,9,11,13,-1,-1,-1,-1,-1,-1,-1,-1],"loss_changes":[1.6184096E0,3.5794542E0,7.964583E0,4.1697454E0,1.1941498E1,2.8564787E0,2.4194663E0,0E0,0E0,0E0,0E0,0E0,0E0,0E0,0E0],"parents":[2147483647,0,0,1,1,2,2,3,3,4,4,5,5,6,6],"right_children":[2,4,6,8,10,12,14,-1,-1,-1,-1,-1,-1,-1,-1],"split_conditions":[7.561E-1,7.237E-1,7.667E-1,7.258E-1,7.556E-1,8.333333E-1,7.419E-1,1.4061282E-2,-1.5295269E-2,-7.605282E-2,2.3452511E-2,9.157473E-2,6.4982786E-3,-9.885395E-3,1.9265033E-2],"split_indices":[6,3,6,4,5,0,5,0,0,0,0,0,0,0,0],"split_type":[0,0,0,0,0,0,0,0,0,0,0,0,0,0,0],"sum_hessian":[3.9018817E2,2.4034589E2,1.4984229E2,1.9360515E2,4.6740746E1,1.8742579E1,1.310997E2,1.06855E2,8.6750145E1,2.4723597E1,2.201715E1,1.3026349E1,5.71623E0,9.082934E1,4.027037E1],"tree_param":{"num_deleted":"0","num_feature":"7","num_nodes":"15","size_leaf_vector":"1"}},{"base_weights":[-3.3148142E-4,-2.1508683E-2,1.857678E-1,1.1806468E-1,-6.1904468E-2,2.0920927E-2,4.84782E-1,2.874577E-2,-6.682917E-3,-7.319093E-2,-2.3197508E-3,-6.542859E-2,9.686052E-3,7.297232E-2,-3.3646222E-2],"categories":[],"categories_nodes":[],"categories_segments":[],"categories_sizes":[],"default_left":[0,0,1,0,0,0,0,0,0,0,0,0,0,0,0],"id":49,"left_children":[1,3,5,7,9,11,13,-1,-1,-1,-1,-1,-1,-1,-1],"loss_changes":[1.5405301E0,1.9859762E0,1.9584241E0,2.4971032E0,7.058425E0,1.4369999E0,3.0914404E0,0E0,0E0,0E0,0E0,0E0,0E0,0E0,0E0],"parents":[2147483647,0,0,1,1,2,2,3,3,4,4,5,5,6,6],"right_children":[2,4,6,8,10,12,14,-1,-1,-1,-1,-1,-1,-1,-1],"split_conditions":[1E0,6.265E-1,7.284E-1,6.592E-1,6.304E-1,6.457E-1,8.125E-1,2.874577E-2,-6.682917E-3,-7.319093E-2,-2.3197508E-3,-6.542859E-2,9.686052E-3,7.297232E-2,-3.3646222E-2],"split_indices":[0,5,5,3,5,3,5,0,0,0,0,0,0,0,0],"split_type":[0,0,0,0,0,0,0,0,0,0,0,0,0,0,0],"sum_hessian":[3.888783E2,3.499411E2,3.8937187E1,7.8116035E1,2.7182507E2,2.5789417E1,1.314777E1,4.04774E1,3.7638638E1,1.38678665E1,2.579572E2,1.8373137E0,2.3952105E1,1.0213093E1,2.9346766E0],"tree_param":{"num_deleted":"0","num_feature":"7","num_nodes":"15","size_leaf_vector":"1"}},{"base_weights":[-4.0360936E-4,-3.874137E-1,1.0828716E-2,-5.098486E-1,3.1610977E-2,2.9755002E-1,-9.670743E-3,-1.0480396E-2,-8.447877E-2,-8.94176E-3,5.2216895E-2,-5.1006716E-2,2.7714638E-4],"categories":[],"categories_nodes":[],"categories_segments":[],"categories_sizes":[],"default_left":[0,0,0,0,0,1,0,0,0,0,0,0,0],"id":50,"left_children":[1,3,5,7,-1,9,11,-1,-1,-1,-1,-1,-1],"loss_changes":[1.6943367E0,1.1080862E0,2.229389E0,1.2337189E0,0E0,2.2464542E0,2.208563E0,0E0,0E0,0E0,0E0,0E0,0E0],"parents":[2147483647,0,0,1,1,2,2,3,3,5,5,6,6],"right_children":[2,4,6,8,-1,10,12,-1,-1,-1,-1,-1,-1],"split_conditions":[5.87E-1,6.964E-1,6.301E-1,5.8E-1,3.1610977E-2,6.154E-1,6.4E-1,-1.0480396E-2,-8.447877E-2,-8.94176E-3,5.2216895E-2,-5.1006716E-2,2.7714638E-4],"split_indices":[3,6,3,6,0,6,3,0,0,0,0,0,0],"split_type":[0,0,0,0,0,0,0,0,0,0,0,0,0],"sum_hessian":[3.8780432E2,9.993318E0,3.77811E2,8.746456E0,1.2468613E0,2.4307833E1,3.5350317E2,4.5531726E0,4.193283E0,9.148664E0,1.5159168E1,7.606164E0,3.45897E2],"tree_param":{"num_deleted":"0","num_feature":"7","num_nodes":"13","size_leaf_vector":"1"}},{"base_weights":[-5.0060404E-4,8.154791E-3,-4.4097728E-1,-1.0213855E-2,4.7142518E-1,7.1524374E-2,-7.7093345E-1,-3.3046545E-3,3.4370236E-2,-4.0295627E-2,6.446826E-2,2.8992856E-2,-1.0848987E-1],"categories":[],"categories_nodes":[],"categories_segments":[],"categories_sizes":[],"default_left":[0,0,0,1,0,0,1,0,0,0,0,0,0],"id":51,"left_children":[1,3,5,7,9,-1,11,-1,-1,-1,-1,-1,-1],"loss_changes":[1.4845814E0,3.2550845E0,3.414284E0,2.9880474E0,2.469755E0,0E0,2.4193785E0,0E0,0E0,0E0,0E0,0E0,0E0],"parents":[2147483647,0,0,1,1,2,2,3,3,4,4,6,6],"right_children":[2,4,6,8,10,-1,12,-1,-1,-1,-1,-1,-1],"split_conditions":[8.492E-1,8.085E-1,8.5E-1,8E-1,8.219E-1,7.1524374E-2,8.333E-1,-3.3046545E-3,3.4370236E-2,-4.0295627E-2,6.446826E-2,2.8992856E-2,-1.0848987E-1],"split_indices":[3,3,6,4,6,0,5,0,0,0,0,0,0],"split_type":[0,0,0,0,0,0,0,0,0,0,0,0,0],"sum_hessian":[3.8745523E2,3.8095102E2,6.5042253E0,3.6736304E2,1.3587972E1,1.1847992E0,5.319426E0,3.4595084E2,2.1412184E1,2.02791E0,1.1560061E1,1.232265E0,4.087161E0],"tree_param":{"num_deleted":"0","num_feature":"7","num_nodes":"13","size_leaf_vector":"1"}},{"base_weights":[-2.4591305E-4,-3.483116E-1,9.973894E-3,-2.4410553E-2,-6.404638E-1,2.775449E-1,-8.872299E-3,-4.9932104E-2,6.112338E-2,-2.8742123E-2,-1.0055591E-1,-1.576366E-2,4.6507902E-2,-1.1291775E-2,4.388022E-3],"categories":[],"categories_nodes":[],"categories_segments":[],"categories_sizes":[],"default_left":[0,0,0,0,0,0,1,0,0,0,0,0,0,0,0],"id":52,"left_children":[1,3,5,7,9,11,13,-1,-1,-1,-1,-1,-1,-1,-1],"loss_changes":[1.3839453E0,1.0345112E0,1.9085227E0,2.2077475E0,4.5793843E-1,2.1056228E0,1.9483912E0,0E0,0E0,0E0,0E0,0E0,0E0,0E0,0E0],"parents":[2147483647,0,0,1,1,2,2,3,3,4,4,5,5,6,6],"right_children":[2,4,6,8,10,12,14,-1,-1,-1,-1,-1,-1,-1,-1],"split_conditions":[5.87E-1,5.181E-1,6.301E-1,5E-1,5.8E-1,7.101E-1,6.585E-1,-4.9932104E-2,6.112338E-2,-2.8742123E-2,-1.0055591E-1,-1.576366E-2,4.6507902E-2,-1.1291775E-2,4.388022E-3],"split_indices":[3,5,3,1,6,4,5,0,0,0,0,0,0,0,0],"split_type":[0,0,0,0,0,0,0,0,0,0,0,0,0,0,0],"sum_hessian":[3.87082E2,1.0097567E1,3.7698444E2,5.3024464E0,4.7951202E0,2.3902277E1,3.5308215E2,3.1576948E0,2.1447515E0,3.3464215E0,1.4486985E0,7.2463098E0,1.6655968E1,1.18405914E2,2.3467624E2],"tree_param":{"num_deleted":"0","num_feature":"7","num_nodes":"15","size_leaf_vector":"1"}},{"base_weights":[-4.241356E-4,2.4180433E-2,-1.42328E-1,7.7511244E-3,7.033202E-1,-6.3855827E-1,5.2045815E-2,2.0719327E-3,-7.439804E-2,8.7575406E-2,7.1383268E-3,3.2928277E-2,-7.696446E-2,1.5716938E-2,-7.166E-2],"categories":[],"categories_nodes":[],"categories_segments":[],"categories_sizes":[],"default_left":[1,1,0,1,0,0,0,0,0,0,0,0,0,0,0],"id":53,"left_children":[1,3,5,7,9,11,13,-1,-1,-1,-1,-1,-1,-1,-1],"loss_changes":[1.3578936E0,3.6929283E0,5.576339E0,3.180237E0,7.893882E-1,2.3151097E0,3.5240045E0,0E0,0E0,0E0,0E0,0E0,0E0,0E0,0E0],"parents":[2147483647,0,0,1,1,2,2,3,3,4,4,5,5,6,6],"right_children":[2,4,6,8,10,12,14,-1,-1,-1,-1,-1,-1,-1,-1],"split_conditions":[7.669E-1,7.667E-1,7.84E-1,7.654E-1,1E0,6.593E-1,7.901E-1,2.0719327E-3,-7.439804E-2,8.7575406E-2,7.1383268E-3,3.2928277E-2,-7.696446E-2,1.5716938E-2,-7.166E-2],"split_indices":[4,4,4,4,1,6,5,0,0,0,0,0,0,0,0],"split_type":[0,0,0,0,0,0,0,0,0,0,0,0,0,0,0],"sum_hessian":[3.8693027E2,3.304615E2,5.6468784E1,3.2364352E2,6.8179603E0,1.5250225E1,4.121856E1,3.1911093E2,4.53258E0,5.0532713E0,1.764689E0,1.6387796E0,1.3611445E1,3.695935E1,4.2592087E0],"tree_param":{"num_deleted":"0","num_feature":"7","num_nodes":"15","size_leaf_vector":"1"}},{"base_weights":[-5.481569E-4,-4.6687424E-2,7.361576E-2,5.4489076E-2,-1.7501095E-1,5.702976E-1,-2.2356143E-2,-1.6919452E-3,3.9519604E-2,2.8320716E-3,-3.7145786E-2,-2.0942083E-2,7.602848E-2,3.245365E-2,-8.774097E-3],"categories":[],"categories_nodes":[],"categories_segments":[],"categories_sizes":[],"default_left":[0,0,0,0,1,0,0,0,0,0,0,0,0,0,0],"id":54,"left_children":[1,3,5,7,9,11,13,-1,-1,-1,-1,-1,-1,-1,-1],"loss_changes":[1.3283627E0,3.1165392E0,7.109797E0,3.2806847E0,4.234084E0,3.7363877E0,2.8804195E0,0E0,0E0,0E0,0E0,0E0,0E0,0E0,0E0],"parents":[2147483647,0,0,1,1,2,2,3,3,4,4,5,5,6,6],"right_children":[2,4,6,8,10,12,14,-1,-1,-1,-1,-1,-1,-1,-1],"split_conditions":[7.561E-1,6.97E-1,7.701E-1,6.829E-1,7.037E-1,6.778E-1,6.1113334E-1,-1.6919452E-3,3.9519604E-2,2.8320716E-3,-3.7145786E-2,-2.0942083E-2,7.602848E-2,3.245365E-2,-8.774097E-3],"split_indices":[6,3,6,3,4,3,0,0,0,0,0,0,0,0,0],"split_type":[0,0,0,0,0,0,0,0,0,0,0,0,0,0,0],"sum_hessian":[3.8619366E2,2.3830717E2,1.4788649E2,1.335697E2,1.04737465E2,2.3147785E1,1.247387E2,1.1121134E2,2.2358366E1,5.1887417E1,5.285005E1,4.515132E0,1.8632654E1,1.9154253E1,1.0558445E2],"tree_param":{"num_deleted":"0","num_feature":"7","num_nodes":"15","size_leaf_vector":"1"}},{"base_weights":[-1.4176843E-4,-4.7093368E-1,7.349892E-3,-2.03746E-1,-8.0466315E-2,1.2899792E-1,-2.7827257E-2,1.360327E-2,-3.4320164E-2,-2.9131582E-2,2.6018595E-2,8.471798E-3,-1.5378472E-2],"categories":[],"categories_nodes":[],"categories_segments":[],"categories_sizes":[],"default_left":[0,0,0,0,0,0,1,0,0,0,0,0,0],"id":55,"left_children":[1,3,5,7,-1,9,11,-1,-1,-1,-1,-1,-1],"loss_changes":[1.3662658E0,3.770957E-1,1.6353586E0,2.6981008E-1,0E0,4.8019247E0,4.2177696E0,0E0,0E0,0E0,0E0,0E0,0E0],"parents":[2147483647,0,0,1,1,2,2,3,3,5,5,6,6],"right_children":[2,4,6,8,-1,10,12,-1,-1,-1,-1,-1,-1],"split_conditions":[2.2223334E-1,3.333E-1,6.667E-1,6.59E-1,-8.0466315E-2,6.774E-1,7.099E-1,1.360327E-2,-3.4320164E-2,-2.9131582E-2,2.6018595E-2,8.471798E-3,-1.5378472E-2],"split_indices":[0,1,1,4,0,4,4,0,0,0,0,0,0],"split_type":[0,0,0,0,0,0,0,0,0,0,0,0,0],"sum_hessian":[3.8539056E2,5.0676494E0,3.803229E2,3.7088296E0,1.3588196E0,8.4711235E1,2.956117E2,1.0863998E0,2.6224296E0,1.9860266E1,6.4850975E1,1.5629063E2,1.3932106E2],"tree_param":{"num_deleted":"0","num_feature":"7","num_nodes":"13","size_leaf_vector":"1"}},{"base_weights":[-3.8300725E-4,-1.9126134E-2,1.6658972E-1,3.252202E-1,-3.356704E-2,9.958872E-3,4.6070713E-1,4.9120035E-2,-4.8851293E-2,-6.306828E-3,1.6133128E-2,-6.33722E-2,8.425255E-3,7.02118E-2,-2.9676879E-2],"categories":[],"categories_nodes":[],"categories_segments":[],"categories_sizes":[],"default_left":[0,0,1,0,0,0,0,0,0,0,0,0,0,0,0],"id":56,"left_children":[1,3,5,7,9,11,13,-1,-1,-1,-1,-1,-1,-1,-1],"loss_changes":[1.2118878E0,1.7420813E0,1.7958097E0,2.14513E0,1.9365103E0,1.3217646E0,2.6876843E0,0E0,0E0,0E0,0E0,0E0,0E0,0E0,0E0],"parents":[2147483647,0,0,1,1,2,2,3,3,4,4,5,5,6,6],"right_children":[2,4,6,8,10,12,14,-1,-1,-1,-1,-1,-1,-1,-1],"split_conditions":[1E0,6.358E-1,7.284E-1,7.826E-1,7.712E-1,6.457E-1,8.125E-1,4.9120035E-2,-4.8851293E-2,-6.306828E-3,1.6133128E-2,-6.33722E-2,8.425255E-3,7.02118E-2,-2.9676879E-2],"split_indices":[0,4,5,5,3,3,5,0,0,0,0,0,0,0,0],"split_type":[0,0,0,0,0,0,0,0,0,0,0,0,0,0,0],"sum_hessian":[3.8521707E2,3.4713562E2,3.8081432E1,1.3105745E1,3.3402988E2,2.5523092E1,1.2558342E1,1.121462E1,1.8911257E0,2.907033E2,4.3326584E1,1.8618712E0,2.366122E1,9.578663E0,2.9796789E0],"tree_param":{"num_deleted":"0","num_feature":"7","num_nodes":"15","size_leaf_vector":"1"}},{"base_weights":[-2.6175223E-4,-4.461226E-1,6.744227E-3,-6.413689E-1,-7.615936E-3,1.2020818E-1,-2.6032884E-2,-1.7715184E-2,-9.509304E-2,-2.6279703E-2,2.4055636E-2,1.3090408E-2,-9.997655E-3],"categories":[],"categories_nodes":[],"categories_segments":[],"categories_sizes":[],"default_left":[0,1,0,0,0,0,0,0,0,0,0,0,0],"id":57,"left_children":[1,3,5,7,-1,9,11,-1,-1,-1,-1,-1,-1],"loss_changes":[1.2076527E0,3.83183E-1,1.4188364E0,3.7476325E-1,0E0,4.004118E0,3.4499843E0,0E0,0E0,0E0,0E0,0E0,0E0],"parents":[2147483647,0,0,1,1,2,2,3,3,5,5,6,6],"right_children":[2,4,6,8,-1,10,12,-1,-1,-1,-1,-1,-1],"split_conditions":[2.2223334E-1,7.16E-1,6.667E-1,3.333E-1,-7.615936E-3,6.774E-1,6.914E-1,-1.7715184E-2,-9.509304E-2,-2.6279703E-2,2.4055636E-2,1.3090408E-2,-9.997655E-3],"split_indices":[0,4,1,1,0,4,4,0,0,0,0,0,0],"split_type":[0,0,0,0,0,0,0,0,0,0,0,0,0],"sum_hessian":[3.8464755E2,4.9809704E0,3.796666E2,2.780155E0,2.2008152E0,8.449708E1,2.951695E2,1.7412504E0,1.0389047E0,1.9919645E1,6.457744E1,9.428661E1,2.0088289E2],"tree_param":{"num_deleted":"0","num_feature":"7","num_nodes":"13","size_leaf_vector":"1"}},{"base_weights":[-5.157589E-4,-2.7247988E-2,1.1301369E-1,1.9713288E-2,-2.7020583E-1,-3.840809E-1,2.0232473E-1,-6.1884045E-4,5.3479563E-2,-5.774197E-2,2.5671555E-2,-3.582627E-3,-8.6343355E-2,3.2848094E-2,-2.5016746E-2],"categories":[],"categories_nodes":[],"categories_segments":[],"categories_sizes":[],"default_left":[1,0,0,0,0,0,0,0,0,0,0,0,0,0,0],"id":58,"left_children":[1,3,5,7,9,11,13,-1,-1,-1,-1,-1,-1,-1,-1],"loss_changes":[1.1731355E0,3.5749567E0,3.3484786E0,3.5136755E0,8.362794E0,1.8997805E0,3.6846204E0,0E0,0E0,0E0,0E0,0E0,0E0,0E0,0E0],"parents":[2147483647,0,0,1,1,2,2,3,3,4,4,5,5,6,6],"right_children":[2,4,6,8,10,12,14,-1,-1,-1,-1,-1,-1,-1,-1],"split_conditions":[7.556E-1,7.288E-1,6.707E-1,7.222E-1,7.778E-1,7.84E-1,8.4E-1,-6.1884045E-4,5.3479563E-2,-5.774197E-2,2.5671555E-2,-3.582627E-3,-8.6343355E-2,3.2848094E-2,-2.5016746E-2],"split_indices":[5,5,4,5,0,3,5,0,0,0,0,0,0,0,0],"split_type":[0,0,0,0,0,0,0,0,0,0,0,0,0,0,0],"sum_hessian":[3.8453424E2,3.118617E2,7.267256E1,2.6211615E2,4.974552E1,1.0565541E1,6.210702E1,2.5050702E2,1.1609137E1,3.1363596E1,1.8381926E1,6.7420855E0,3.8234556E0,4.8780838E1,1.3326182E1],"tree_param":{"num_deleted":"0","num_feature":"7","num_nodes":"15","size_leaf_vector":"1"}},{"base_weights":[-5.3415186E-4,1.0253145E-1,-2.937403E-2,-2.5986591E-2,3.3592162E-1,-4.3854702E-1,9.367377E-3,1.4872043E-2,-4.789359E-2,4.8235934E-2,-8.023617E-2,-6.1132103E-2,3.201527E-2,5.053519E-2,-2.6118902E-3],"categories":[],"categories_nodes":[],"categories_segments":[],"categories_sizes":[],"default_left":[0,0,0,0,0,0,0,0,0,0,0,0,0,0,0],"id":59,"left_children":[1,3,5,7,9,11,13,-1,-1,-1,-1,-1,-1,-1,-1],"loss_changes":[1.1459846E0,2.5371816E0,4.779226E0,4.4464984E0,5.3887253E0,3.6137705E0,4.8737416E0,0E0,0E0,0E0,0E0,0E0,0E0,0E0,0E0],"parents":[2147483647,0,0,1,1,2,2,3,3,4,4,5,5,6,6],"right_children":[2,4,6,8,10,12,14,-1,-1,-1,-1,-1,-1,-1,-1],"split_conditions":[6.265E-1,6.024E-1,6.505E-1,5.833E-1,7.692E-1,7.284E-1,6.667E-1,1.4872043E-2,-4.789359E-2,4.8235934E-2,-8.023617E-2,-6.1132103E-2,3.201527E-2,5.053519E-2,-2.6118902E-3],"split_indices":[5,5,3,5,4,5,3,0,0,0,0,0,0,0,0],"split_type":[0,0,0,0,0,0,0,0,0,0,0,0,0,0,0],"sum_hessian":[3.8352866E2,8.329622E1,3.0023245E2,5.4289795E1,2.9006426E1,2.5075375E1,2.7515707E2,3.9663033E1,1.4626762E1,2.6210712E1,2.7957125E0,2.05825E1,4.492875E0,1.7488138E1,2.5766895E2],"tree_param":{"num_deleted":"0","num_feature":"7","num_nodes":"15","size_leaf_vector":"1"}},{"base_weights":[-4.9999007E-4,-3.1935534E-1,8.984331E-3,3.3870555E-2,-4.2640135E-1,2.6523137E-1,-9.012653E-3,-5.5473577E-2,2.5886027E-2,3.5270534E-2,-5.2486297E-2,-1.0823277E-2,4.1517406E-3],"categories":[],"categories_nodes":[],"categories_segments":[],"categories_sizes":[],"default_left":[0,0,0,0,0,1,1,0,0,0,0,0,0],"id":60,"left_children":[1,3,5,-1,7,9,11,-1,-1,-1,-1,-1,-1],"loss_changes":[1.1630701E0,9.269955E-1,1.7250303E0,0E0,1.0228235E0,1.8815603E0,1.7592182E0,0E0,0E0,0E0,0E0,0E0,0E0],"parents":[2147483647,0,0,1,1,2,2,4,4,5,5,6,6],"right_children":[2,4,6,-1,8,10,12,-1,-1,-1,-1,-1,-1],"split_conditions":[5.87E-1,6.5E-1,6.301E-1,3.3870555E-2,6.706E-1,7.869E-1,6.585E-1,-5.5473577E-2,2.5886027E-2,3.5270534E-2,-5.2486297E-2,-1.0823277E-2,4.1517406E-3],"split_indices":[3,4,3,0,6,4,5,0,0,0,0,0,0],"split_type":[0,0,0,0,0,0,0,0,0,0,0,0,0],"sum_hessian":[3.8264832E2,1.0109313E1,3.72539E2,1.1116118E0,8.997701E0,2.3545979E1,3.48993E2,7.738858E0,1.2588423E0,2.169738E1,1.848598E0,1.1737505E2,2.3161797E2],"tree_param":{"num_deleted":"0","num_feature":"7","num_nodes":"13","size_leaf_vector":"1"}},{"base_weights":[-4.7051598E-4,-4.2369884E-2,6.676466E-2,1.0609861E-2,-2.5655672E-1,5.3993785E-1,-2.1370871E-2,1.240627E-2,-1.2816006E-2,-6.6652335E-2,2.2881858E-2,-7.523484E-2,6.391426E-2,-4.4480108E-2,3.140072E-3],"categories":[],"categories_nodes":[],"categories_segments":[],"categories_sizes":[],"default_left":[0,0,0,0,0,0,0,0,0,0,0,0,0,0,0],"id":61,"left_children":[1,3,5,7,9,11,13,-1,-1,-1,-1,-1,-1,-1,-1],"loss_changes":[1.0827023E0,2.6894853E0,6.165141E0,3.019483E0,9.503292E0,3.45603E0,2.8149097E0,0E0,0E0,0E0,0E0,0E0,0E0,0E0,0E0],"parents":[2147483647,0,0,1,1,2,2,3,3,4,4,5,5,6,6],"right_children":[2,4,6,8,10,12,14,-1,-1,-1,-1,-1,-1,-1,-1],"split_conditions":[7.561E-1,7.237E-1,7.701E-1,7.258E-1,7.576E-1,6.579E-1,6.667E-1,1.240627E-2,-1.2816006E-2,-6.6652335E-2,2.2881858E-2,-7.523484E-2,6.391426E-2,-4.4480108E-2,3.140072E-3],"split_indices":[6,3,6,4,5,3,4,0,0,0,0,0,0,0,0],"split_type":[0,0,0,0,0,0,0,0,0,0,0,0,0,0,0],"sum_hessian":[3.823265E2,2.3577003E2,1.4655647E2,1.8977829E2,4.5991753E1,2.2207085E1,1.24349396E2,1.0447204E2,8.530625E1,2.4730343E1,2.126141E1,1.1138456E0,2.1093239E1,1.2956873E1,1.1139252E2],"tree_param":{"num_deleted":"0","num_feature":"7","num_nodes":"15","size_leaf_vector":"1"}},{"base_weights":[-5.5930874E-4,-1.4247103E-2,1.9455452E-1,1.7557682E-2,-3.32524E-1,4.1841704E-1,-7.9100513E-1,2.1891133E-4,6.698492E-2,-5.0746858E-2,2.194931E-2,8.728843E-2,2.6709542E-2,-1.0327899E-1,-6.383409E-3],"categories":[],"categories_nodes":[],"categories_segments":[],"categories_sizes":[],"default_left":[1,1,0,1,0,0,0,0,0,0,0,0,0,0,0],"id":62,"left_children":[1,3,5,7,9,11,13,-1,-1,-1,-1,-1,-1,-1,-1],"loss_changes":[1.0234221E0,3.6302614E0,5.873404E0,3.2713192E0,3.2575872E0,1.2196476E0,8.1243205E-1,0E0,0E0,0E0,0E0,0E0,0E0,0E0,0E0],"parents":[2147483647,0,0,1,1,2,2,3,3,4,4,5,5,6,6],"right_children":[2,4,6,8,10,12,14,-1,-1,-1,-1,-1,-1,-1,-1],"split_conditions":[8E-1,7.669E-1,7.901E-1,7.667E-1,7.778E-1,5.5556667E-1,8.395E-1,2.1891133E-4,6.698492E-2,-5.0746858E-2,2.194931E-2,8.728843E-2,2.6709542E-2,-1.0327899E-1,-6.383409E-3],"split_indices":[4,4,5,4,0,0,4,0,0,0,0,0,0,0,0],"split_type":[0,0,0,0,0,0,0,0,0,0,0,0,0,0,0],"sum_hessian":[3.8116898E2,3.57048E2,2.412096E1,3.2546933E2,3.1578676E1,2.0125137E1,3.995822E0,3.1895776E2,6.511573E0,2.4040493E1,7.5381827E0,3.835999E0,1.6289139E1,2.6833296E0,1.3124925E0],"tree_param":{"num_deleted":"0","num_feature":"7","num_nodes":"15","size_leaf_vector":"1"}},{"base_weights":[-3.4228934E-4,-4.4700223E-1,5.37992E-3,1.6582325E-1,-1.15656175E-1,5.104059E-1,-5.397687E-3,3.8555376E-2,-9.233582E-3,-1.5370915E-2,7.311277E-2,-3.6157567E-2,1.4040166E-3],"categories":[],"categories_nodes":[],"categories_segments":[],"categories_sizes":[],"default_left":[0,0,0,0,0,0,0,0,0,0,0,0,0],"id":63,"left_children":[1,3,5,7,-1,9,11,-1,-1,-1,-1,-1,-1],"loss_changes":[9.7688633E-1,2.294045E0,2.057126E0,2.323657E-1,0E0,1.2699456E0,2.5704403E0,0E0,0E0,0E0,0E0,0E0,0E0],"parents":[2147483647,0,0,1,1,2,2,3,3,5,5,6,6],"right_children":[2,4,6,8,-1,10,12,-1,-1,-1,-1,-1,-1],"split_conditions":[5E-1,1E0,5.556E-1,5.405E-1,-1.15656175E-1,5E-1,6.154E-1,3.8555376E-2,-9.233582E-3,-1.5370915E-2,7.311277E-2,-3.6157567E-2,1.4040166E-3],"split_indices":[6,2,6,3,0,0,6,0,0,0,0,0,0],"split_type":[0,0,0,0,0,0,0,0,0,0,0,0,0],"sum_hessian":[3.802702E2,3.8346024E0,3.764356E2,2.4687326E0,1.3658698E0,6.8969016E0,3.695387E2,1.0670478E0,1.4016848E0,1.7961607E0,5.1007414E0,1.8212494E1,3.513262E2],"tree_param":{"num_deleted":"0","num_feature":"7","num_nodes":"13","size_leaf_vector":"1"}},{"base_weights":[-4.45259E-4,4.9392633E-2,-4.9953427E-2,3.324071E-2,4.822706E-1,-5.269543E-1,3.3951574E-3,5.017238E-3,-7.143347E-2,8.171486E-2,-5.327053E-2,-2.3207035E-2,-1.12286665E-1,-3.8229994E-2,4.469017E-3],"categories":[],"categories_nodes":[],"categories_segments":[],"categories_sizes":[],"default_left":[0,1,0,0,0,0,0,0,0,0,0,0,0,0,0],"id":64,"left_children":[1,3,5,7,9,11,13,-1,-1,-1,-1,-1,-1,-1,-1],"loss_changes":[9.429121E-1,1.3155293E0,4.8801694E0,2.373328E0,2.7385645E0,3.129199E0,2.7791114E0,0E0,0E0,0E0,0E0,0E0,0E0,0E0,0E0],"parents":[2147483647,0,0,1,1,2,2,3,3,4,4,5,5,6,6],"right_children":[2,4,6,8,10,12,14,-1,-1,-1,-1,-1,-1,-1,-1],"split_conditions":[7.071E-1,8E-1,7.157E-1,7.826E-1,6.981E-1,7.126E-1,6.615E-1,5.017238E-3,-7.143347E-2,8.171486E-2,-5.327053E-2,-2.3207035E-2,-1.12286665E-1,-3.8229994E-2,4.469017E-3],"split_indices":[3,5,3,5,3,3,5,0,0,0,0,0,0,0,0],"split_type":[0,0,0,0,0,0,0,0,0,0,0,0,0,0,0],"sum_hessian":[3.8015076E2,1.894457E2,1.9070506E2,1.8366925E2,5.7764387E0,1.829028E1,1.7241478E2,1.8051373E2,3.1555293E0,4.4899473E0,1.286491E0,1.3165059E1,5.1252203E0,1.5875931E1,1.5653885E2],"tree_param":{"num_deleted":"0","num_feature":"7","num_nodes":"15","size_leaf_vector":"1"}},{"base_weights":[-8.7152823E-4,1.4600398E-1,-1.7506175E-2,-5.2928805E-2,8.3472437E-1,-5.066088E-1,-8.624095E-4,3.7031535E-2,-1.8205887E-2,1.0166992E-1,1.4701801E-2,9.533748E-3,-1.0932038E-1,-2.186676E-2,3.106859E-3],"categories":[],"categories_nodes":[],"categories_segments":[],"categories_sizes":[],"default_left":[0,0,0,0,0,1,0,0,0,0,0,0,0,0,0],"id":65,"left_children":[1,3,5,7,9,11,13,-1,-1,-1,-1,-1,-1,-1,-1],"loss_changes":[9.3343246E-1,5.3694954E0,2.792859E0,1.7670287E0,9.481063E-1,4.0909343E0,2.321641E0,0E0,0E0,0E0,0E0,0E0,0E0,0E0,0E0],"parents":[2147483647,0,0,1,1,2,2,3,3,4,4,5,5,6,6],"right_children":[2,4,6,8,10,12,14,-1,-1,-1,-1,-1,-1,-1,-1],"split_conditions":[5.789E-1,5.658E-1,6E-1,6.667E-1,7.719E-1,6.667E-1,5.5553335E-1,3.7031535E-2,-1.8205887E-2,1.0166992E-1,1.4701801E-2,9.533748E-3,-1.0932038E-1,-2.186676E-2,3.106859E-3],"split_indices":[5,5,5,4,6,4,0,0,0,0,0,0,0,0,0],"split_type":[0,0,0,0,0,0,0,0,0,0,0,0,0,0,0],"sum_hessian":[3.8000363E2,3.7868336E1,3.421353E2,3.0097889E1,7.7704463E0,1.0290642E1,3.3184467E2,6.599433E0,2.3498455E1,5.7662425E0,2.0042036E0,5.492192E0,4.79845E0,4.1681564E1,2.901631E2],"tree_param":{"num_deleted":"0","num_feature":"7","num_nodes":"15","size_leaf_vector":"1"}},{"base_weights":[-6.5456436E-4,9.35524E-2,-2.9351871E-2,-3.7406665E-1,1.719707E-1,6.513665E-2,-1.339189E-1,-6.918653E-2,2.1766135E-2,-6.972899E-2,2.2244737E-2,1.2497997E-2,-5.37364E-2,-2.944308E-2,2.9123625E-2],"categories":[],"categories_nodes":[],"categories_segments":[],"categories_sizes":[],"default_left":[0,0,1,0,0,0,1,0,0,0,0,0,0,0,0],"id":66,"left_children":[1,3,5,7,9,11,13,-1,-1,-1,-1,-1,-1,-1,-1],"loss_changes":[1.0311882E0,3.330249E0,2.897259E0,2.615095E0,3.5317898E0,5.6287103E0,9.578373E0,0E0,0E0,0E0,0E0,0E0,0E0,0E0,0E0],"parents":[2147483647,0,0,1,1,2,2,3,3,4,4,5,5,6,6],"right_children":[2,4,6,8,10,12,14,-1,-1,-1,-1,-1,-1,-1,-1],"split_conditions":[6.667E-1,6.59E-1,7.099E-1,6.957E-1,5.87E-1,7.805E-1,7.419E-1,-6.918653E-2,2.1766135E-2,-6.972899E-2,2.2244737E-2,1.2497997E-2,-5.37364E-2,-2.944308E-2,2.9123625E-2],"split_indices":[1,4,4,6,3,3,5,0,0,0,0,0,0,0,0],"split_type":[0,0,0,0,0,0,0,0,0,0,0,0,0,0,0],"sum_hessian":[3.7941333E2,8.806274E1,2.9135062E2,1.2105547E1,7.5957184E1,1.5324916E2,1.3810144E2,7.7656374E0,4.3399096E0,3.4653947E0,7.249179E1,1.4012393E2,1.312523E1,1.0047563E2,3.7625816E1],"tree_param":{"num_deleted":"0","num_feature":"7","num_nodes":"15","size_leaf_vector":"1"}},{"base_weights":[-8.427544E-4,9.577526E-2,-2.7811963E-2,2.5451306E-1,-6.407645E-2,-3.817075E-1,5.400538E-3,1.7129601E-3,5.960494E-2,-7.239394E-2,5.100344E-3,-1.8514598E-2,-1.1724117E-1,4.6856135E-2,-2.7361244E-3],"categories":[],"categories_nodes":[],"categories_segments":[],"categories_sizes":[],"default_left":[0,0,0,0,0,0,0,0,0,0,0,0,0,0,0],"id":67,"left_children":[1,3,5,7,9,11,13,-1,-1,-1,-1,-1,-1,-1,-1],"loss_changes":[9.9297005E-1,2.1264536E0,3.5034127E0,3.3889852E0,3.2440073E0,3.7573917E0,4.160172E0,0E0,0E0,0E0,0E0,0E0,0E0,0E0,0E0],"parents":[2147483647,0,0,1,1,2,2,3,3,4,4,5,5,6,6],"right_children":[2,4,6,8,10,12,14,-1,-1,-1,-1,-1,-1,-1,-1],"split_conditions":[6.265E-1,6.592E-1,6.505E-1,6E-1,7.26E-1,6.667E-1,6.667E-1,1.7129601E-3,5.960494E-2,-7.239394E-2,5.100344E-3,-1.8514598E-2,-1.1724117E-1,4.6856135E-2,-2.7361244E-3],"split_indices":[5,3,3,5,6,6,3,0,0,0,0,0,0,0,0],"split_type":[0,0,0,0,0,0,0,0,0,0,0,0,0,0,0],"sum_hessian":[3.7905215E2,8.2160034E1,2.9689212E2,4.092652E1,4.1233513E1,2.4572042E1,2.7232007E2,2.4764328E1,1.6162195E1,5.3375406E0,3.5895973E1,2.0668264E1,3.9037795E0,1.7111322E1,2.5520876E2],"tree_param":{"num_deleted":"0","num_feature":"7","num_nodes":"15","size_leaf_vector":"1"}},{"base_weights":[-9.3512353E-4,-4.1666366E-2,6.417014E-2,8.391998E-3,-2.4431288E-1,5.788097E-1,-4.955304E-3,-2.8859593E-3,3.371082E-2,-6.053279E-2,1.9061437E-2,8.942633E-2,4.020881E-3,2.8654877E-2,-6.2093274E-3],"categories":[],"categories_nodes":[],"categories_segments":[],"categories_sizes":[],"default_left":[0,0,0,0,0,0,0,0,0,0,0,0,0,0,0],"id":68,"left_children":[1,3,5,7,9,11,13,-1,-1,-1,-1,-1,-1,-1,-1],"loss_changes":[1.0089082E0,2.3760376E0,5.2119102E0,2.3195882E0,7.3995275E0,2.9113922E0,2.1843708E0,0E0,0E0,0E0,0E0,0E0,0E0,0E0,0E0],"parents":[2147483647,0,0,1,1,2,2,3,3,4,4,5,5,6,6],"right_children":[2,4,6,8,10,12,14,-1,-1,-1,-1,-1,-1,-1,-1],"split_conditions":[7.561E-1,7.237E-1,7.667E-1,7.171E-1,7.576E-1,1E0,6.1113334E-1,-2.8859593E-3,3.371082E-2,-6.053279E-2,1.9061437E-2,8.942633E-2,4.020881E-3,2.8654877E-2,-6.2093274E-3],"split_indices":[6,3,6,3,5,1,0,0,0,0,0,0,0,0,0],"split_type":[0,0,0,0,0,0,0,0,0,0,0,0,0,0,0],"sum_hessian":[3.784507E2,2.3302519E2,1.4542552E2,1.876339E2,4.5391308E1,1.6347193E1,1.2907832E2,1.6935413E2,1.8279764E1,2.4589115E1,2.0802193E1,9.892753E0,6.4544406E0,2.0496273E1,1.0858205E2],"tree_param":{"num_deleted":"0","num_feature":"7","num_nodes":"15","size_leaf_vector":"1"}},{"base_weights":[-4.6376418E-4,-2.538173E-1,9.031315E-3,-8.327943E-2,-1.18125014E-1,1.3904805E-1,-2.4772814E-2,-3.656126E-2,9.845513E-2,-3.476013E-2,2.9309276E-2,-1.880284E-2,2.8714126E-3],"categories":[],"categories_nodes":[],"categories_segments":[],"categories_sizes":[],"default_left":[0,0,0,0,0,0,0,0,0,0,0,0,0],"id":69,"left_children":[1,3,5,7,-1,9,11,-1,-1,-1,-1,-1,-1],"loss_changes":[9.13594E-1,2.0714371E0,1.6125109E0,4.1779275E0,0E0,5.7764997E0,2.5499876E0,0E0,0E0,0E0,0E0,0E0,0E0],"parents":[2147483647,0,0,1,1,2,2,3,3,5,5,6,6],"right_children":[2,4,6,8,-1,10,12,-1,-1,-1,-1,-1,-1],"split_conditions":[3.333E-1,8.642E-1,6.667E-1,7.679E-1,-1.18125014E-1,6.774E-1,6.667E-1,-3.656126E-2,9.845513E-2,-3.476013E-2,2.9309276E-2,-1.880284E-2,2.8714126E-3],"split_indices":[1,6,1,6,0,4,0,0,0,0,0,0,0],"split_type":[0,0,0,0,0,0,0,0,0,0,0,0,0],"sum_hessian":[3.7782324E2,1.2718879E1,3.6510437E2,1.16638975E1,1.054981E0,7.4696175E1,2.904082E2,9.744955E0,1.9189429E0,1.7657402E1,5.703877E1,7.104515E1,2.1936305E2],"tree_param":{"num_deleted":"0","num_feature":"7","num_nodes":"13","size_leaf_vector":"1"}},{"base_weights":[-5.80151E-4,-1.6338354E-2,1.4117676E-1,9.692117E-2,-4.8953168E-2,-1.8048356E-1,2.7464056E-1,7.602004E-4,3.5371378E-2,-6.20627E-2,-1.7671952E-3,1.2046728E-2,-1.4463492E-1,-4.831198E-2,4.205552E-2],"categories":[],"categories_nodes":[],"categories_segments":[],"categories_sizes":[],"default_left":[0,0,0,0,0,0,0,0,0,0,0,0,0,0,0],"id":70,"left_children":[1,3,5,7,9,11,13,-1,-1,-1,-1,-1,-1,-1,-1],"loss_changes":[8.483388E-1,1.2671186E0,1.6806235E0,1.7575227E0,4.745805E0,4.648607E0,3.2159972E0,0E0,0E0,0E0,0E0,0E0,0E0,0E0,0E0],"parents":[2147483647,0,0,1,1,2,2,3,3,4,4,5,5,6,6],"right_children":[2,4,6,8,10,12,14,-1,-1,-1,-1,-1,-1,-1,-1],"split_conditions":[1E0,6.265E-1,6.707E-1,6.092E-1,6.304E-1,7.719E-1,6.693E-1,7.602004E-4,3.5371378E-2,-6.20627E-2,-1.7671952E-3,1.2046728E-2,-1.4463492E-1,-4.831198E-2,4.205552E-2],"split_indices":[0,5,4,5,5,6,3,0,0,0,0,0,0,0,0],"split_type":[0,0,0,0,0,0,0,0,0,0,0,0,0,0,0],"sum_hessian":[3.7773544E2,3.407421E2,3.6993362E1,7.574281E1,2.6499927E2,1.0744883E1,2.624848E1,5.6960182E1,1.8782633E1,1.2770693E1,2.5222858E2,9.412064E0,1.3328193E0,3.8651419E0,2.2383339E1],"tree_param":{"num_deleted":"0","num_feature":"7","num_nodes":"15","size_leaf_vector":"1"}},{"base_weights":[-8.861442E-4,1.3787423E-1,-1.6567463E-2,-4.1643772E-2,8.0018497E-1,-3.7167075E-1,2.5055911E-3,3.4917556E-2,-1.5801715E-2,9.883258E-2,1.349502E-2,5.306802E-2,-6.691749E-2,4.410415E-2,-2.1069741E-3],"categories":[],"categories_nodes":[],"categories_segments":[],"categories_sizes":[],"default_left":[0,0,0,0,0,0,0,0,0,0,0,0,0,0,0],"id":71,"left_children":[1,3,5,7,9,11,13,-1,-1,-1,-1,-1,-1,-1,-1],"loss_changes":[8.242623E-1,4.6064463E0,2.305708E0,1.4746995E0,8.993788E-1,5.013487E0,3.3583994E0,0E0,0E0,0E0,0E0,0E0,0E0,0E0,0E0],"parents":[2147483647,0,0,1,1,2,2,3,3,4,4,5,5,6,6],"right_children":[2,4,6,8,10,12,14,-1,-1,-1,-1,-1,-1,-1,-1],"split_conditions":[5.789E-1,5.658E-1,6.024E-1,6.667E-1,7.719E-1,5E-1,6.154E-1,3.4917556E-2,-1.5801715E-2,9.883258E-2,1.349502E-2,5.306802E-2,-6.691749E-2,4.410415E-2,-2.1069741E-3],"split_indices":[5,5,5,4,6,1,5,0,0,0,0,0,0,0,0],"split_type":[0,0,0,0,0,0,0,0,0,0,0,0,0,0,0],"sum_hessian":[3.7675668E2,3.7462997E1,3.392937E2,3.0211386E1,7.2516127E0,1.6352636E1,3.2294107E2,6.4728823E0,2.3738503E1,5.2742705E0,1.977342E0,3.8603003E0,1.2492336E1,1.5571958E1,3.073691E2],"tree_param":{"num_deleted":"0","num_feature":"7","num_nodes":"15","size_leaf_vector":"1"}},{"base_weights":[-2.594514E-4,-1.8770644E-2,1.18982434E-1,1.1651674E-2,-2.4942838E-1,8.7804794E-1,-4.992019E-2,-9.717294E-4,4.4466652E-2,-5.0422143E-2,1.2070479E-2,-1.909105E-2,1.0540451E-1,-9.521431E-2,1.0983931E-2],"categories":[],"categories_nodes":[],"categories_segments":[],"categories_sizes":[],"default_left":[0,0,0,1,0,0,1,0,0,0,0,0,0,0,0],"id":72,"left_children":[1,3,5,7,9,11,13,-1,-1,-1,-1,-1,-1,-1,-1],"loss_changes":[8.35371E-1,2.3016365E0,6.5641313E0,2.691147E0,3.6649828E0,1.9528394E0,6.237201E0,0E0,0E0,0E0,0E0,0E0,0E0,0E0,0E0],"parents":[2147483647,0,0,1,1,2,2,3,3,4,4,5,5,6,6],"right_children":[2,4,6,8,10,12,14,-1,-1,-1,-1,-1,-1,-1,-1],"split_conditions":[7.712E-1,7.469E-1,7.805E-1,8E-1,7.467E-1,6.706E-1,6.667E-1,-9.717294E-4,4.4466652E-2,-5.0422143E-2,1.2070479E-2,-1.909105E-2,1.0540451E-1,-9.521431E-2,1.0983931E-2],"split_indices":[3,3,3,4,5,6,4,0,0,0,0,0,0,0,0],"split_type":[0,0,0,0,0,0,0,0,0,0,0,0,0,0,0],"sum_hessian":[3.764449E2,3.2658774E2,4.9857124E1,2.89371E2,3.7216747E1,8.3104725E0,4.1546654E1,2.766939E2,1.2677085E1,2.182828E1,1.5388468E1,1.1628575E0,7.147615E0,5.503941E0,3.6042713E1],"tree_param":{"num_deleted":"0","num_feature":"7","num_nodes":"15","size_leaf_vector":"1"}},{"base_weights":[-1.1015965E-4,-3.792731E-2,6.042921E-2,5.0585277E-2,-1.4870568E-1,5.456701E-1,-2.1028738E-3,-1.4062182E-3,3.5972055E-2,-8.4464684E-2,-1.00706E-2,8.147778E-2,-5.709891E-3,2.7116967E-2,-5.530264E-3],"categories":[],"categories_nodes":[],"categories_segments":[],"categories_sizes":[],"default_left":[0,0,0,0,0,0,0,0,0,0,0,0,0,0,0],"id":73,"left_children":[1,3,5,7,9,11,13,-1,-1,-1,-1,-1,-1,-1,-1],"loss_changes":[8.6547273E-1,2.28901E0,4.411514E0,2.6047614E0,3.3755417E0,2.7386432E0,1.9013541E0,0E0,0E0,0E0,0E0,0E0,0E0,0E0,0E0],"parents":[2147483647,0,0,1,1,2,2,3,3,4,4,5,5,6,6],"right_children":[2,4,6,8,10,12,14,-1,-1,-1,-1,-1,-1,-1,-1],"split_conditions":[7.561E-1,6.97E-1,7.667E-1,6.829E-1,6.517E-1,8.333333E-1,6.1113334E-1,-1.4062182E-3,3.5972055E-2,-8.4464684E-2,-1.00706E-2,8.147778E-2,-5.709891E-3,2.7116967E-2,-5.530264E-3],"split_indices":[6,3,6,3,5,0,0,0,0,0,0,0,0,0,0],"split_type":[0,0,0,0,0,0,0,0,0,0,0,0,0,0,0],"sum_hessian":[3.7602927E2,2.3167947E2,1.443498E2,1.2908395E2,1.02595505E2,1.5596527E1,1.2875327E2,1.07547714E2,2.1536247E1,5.5487003E0,9.704681E1,1.0539441E1,5.0570865E0,2.031313E1,1.0844014E2],"tree_param":{"num_deleted":"0","num_feature":"7","num_nodes":"15","size_leaf_vector":"1"}},{"base_weights":[9.604742E-5,-3.9730048E-1,5.276073E-3,1.7904863E-1,-1.06012516E-1,4.6201402E-1,-4.3061567E-3,3.935287E-2,-7.972883E-3,7.94603E-2,4.285283E-3,-3.1439055E-2,1.2863487E-3],"categories":[],"categories_nodes":[],"categories_segments":[],"categories_sizes":[],"default_left":[0,0,0,0,0,1,0,0,0,0,0,0,0],"id":74,"left_children":[1,3,5,7,-1,9,11,-1,-1,-1,-1,-1,-1],"loss_changes":[7.769901E-1,2.0451715E0,1.6325896E0,2.2304463E-1,0E0,1.0345325E0,1.952163E0,0E0,0E0,0E0,0E0,0E0,0E0],"parents":[2147483647,0,0,1,1,2,2,3,3,5,5,6,6],"right_children":[2,4,6,8,-1,10,12,-1,-1,-1,-1,-1,-1],"split_conditions":[5E-1,1E0,5.556E-1,5.405E-1,-1.06012516E-1,7E-1,6.154E-1,3.935287E-2,-7.972883E-3,7.94603E-2,4.285283E-3,-3.1439055E-2,1.2863487E-3],"split_indices":[6,2,6,3,0,5,6,0,0,0,0,0,0],"split_type":[0,0,0,0,0,0,0,0,0,0,0,0,0],"sum_hessian":[3.7543182E2,3.8567224E0,3.715751E2,2.4533336E0,1.4033886E0,6.6651335E0,3.6490997E2,1.0567528E0,1.3965809E0,3.2169244E0,3.4482088E0,1.8237064E1,3.466729E2],"tree_param":{"num_deleted":"0","num_feature":"7","num_nodes":"13","size_leaf_vector":"1"}},{"base_weights":[5.0113948E-5,8.130537E-2,-2.4729025E-2,7.765948E-1,1.391371E-2,-2.7489716E-1,2.1413622E-2,1.1298398E-1,-5.281862E-3,6.8416162E-3,-3.788333E-2,-4.0237553E-2,3.463082E-2,5.2160967E-2,-1.6681375E-3],"categories":[],"categories_nodes":[],"categories_segments":[],"categories_sizes":[],"default_left":[0,0,0,1,0,0,1,0,0,0,0,0,0,0,0],"id":75,"left_children":[1,3,5,7,9,11,13,-1,-1,-1,-1,-1,-1,-1,-1],"loss_changes":[7.59758E-1,4.121079E0,3.3438318E0,2.3372297E0,1.768505E0,3.7109864E0,4.6783543E0,0E0,0E0,0E0,0E0,0E0,0E0,0E0,0E0],"parents":[2147483647,0,0,1,1,2,2,3,3,4,4,5,5,6,6],"right_children":[2,4,6,8,10,12,14,-1,-1,-1,-1,-1,-1,-1,-1],"split_conditions":[6.667E-1,6.506E-1,6.867E-1,7.2E-1,7.353E-1,7.386E-1,7E-1,1.1298398E-1,-5.281862E-3,6.8416162E-3,-3.788333E-2,-4.0237553E-2,3.463082E-2,5.2160967E-2,-1.6681375E-3],"split_indices":[3,4,6,6,6,3,6,0,0,0,0,0,0,0,0],"split_type":[0,0,0,0,0,0,0,0,0,0,0,0,0,0,0],"sum_hessian":[3.7534555E2,8.7181274E1,2.8816428E2,6.773588E0,8.0407684E1,4.410203E1,2.4406226E2,4.4963775E0,2.2772105E0,7.133426E1,9.073427E0,3.6885067E1,7.216966E0,1.637411E1,2.2768814E2],"tree_param":{"num_deleted":"0","num_feature":"7","num_nodes":"15","size_leaf_vector":"1"}},{"base_weights":[4.7349153E-4,-2.5550094E-1,8.284584E-3,-4.9303925E-1,4.037035E-2,2.672085E-1,-9.674946E-3,3.051619E-2,-8.503421E-2,4.6593998E-2,-6.58186E-2,-1.844298E-2,4.670188E-2,-1.0805283E-2,4.0205056E-3],"categories":[],"categories_nodes":[],"categories_segments":[],"categories_sizes":[],"default_left":[0,0,0,0,0,0,1,0,0,0,0,0,0,0,0],"id":76,"left_children":[1,3,5,7,9,11,13,-1,-1,-1,-1,-1,-1,-1,-1],"loss_changes":[7.54037E-1,8.0474913E-1,1.7040672E0,2.0476766E0,2.0598612E0,2.2310262E0,1.6881135E0,0E0,0E0,0E0,0E0,0E0,0E0,0E0,0E0],"parents":[2147483647,0,0,1,1,2,2,3,3,4,4,5,5,6,6],"right_children":[2,4,6,8,10,12,14,-1,-1,-1,-1,-1,-1,-1,-1],"split_conditions":[5.87E-1,5E-1,6.301E-1,5.556E-1,5.577E-1,7.101E-1,6.585E-1,3.051619E-2,-8.503421E-2,4.6593998E-2,-6.58186E-2,-1.844298E-2,4.670188E-2,-1.0805283E-2,4.0205056E-3],"split_indices":[3,1,3,6,5,4,5,0,0,0,0,0,0,0,0],"split_type":[0,0,0,0,0,0,0,0,0,0,0,0,0,0,0],"sum_hessian":[3.750655E2,1.016728E1,3.648982E2,5.269943E0,4.897337E0,2.2768251E1,3.4212994E2,1.6746862E0,3.5952573E0,3.2502427E0,1.6470944E0,7.007018E0,1.5761233E1,1.147141E2,2.2741585E2],"tree_param":{"num_deleted":"0","num_feature":"7","num_nodes":"15","size_leaf_vector":"1"}},{"base_weights":[3.2786498E-4,4.0176194E-2,-5.3140573E-2,-1.3533332E-2,3.7253004E-1,-3.9539286E-1,3.4099414E-3,4.170691E-3,-2.5814462E-2,-7.642219E-2,4.5205366E-2,-8.599185E-2,2.9308752E-3,3.1376272E-2,-4.7348044E-3],"categories":[],"categories_nodes":[],"categories_segments":[],"categories_sizes":[],"default_left":[0,0,0,0,0,0,0,0,0,0,0,0,0,0,0],"id":77,"left_children":[1,3,5,7,9,11,13,-1,-1,-1,-1,-1,-1,-1,-1],"loss_changes":[8.0302185E-1,3.859827E0,3.1163642E0,2.5358207E0,3.0644684E0,4.5293436E0,2.2063067E0,0E0,0E0,0E0,0E0,0E0,0E0,0E0,0E0],"parents":[2147483647,0,0,1,1,2,2,3,3,4,4,5,5,6,6],"right_children":[2,4,6,8,10,12,14,-1,-1,-1,-1,-1,-1,-1,-1],"split_conditions":[7.021E-1,6.8E-1,7.16E-1,8E-1,5.976E-1,7.222E-1,7.288E-1,4.170691E-3,-2.5814462E-2,-7.642219E-2,4.5205366E-2,-8.599185E-2,2.9308752E-3,3.1376272E-2,-4.7348044E-3],"split_indices":[5,5,5,6,6,6,5,0,0,0,0,0,0,0,0],"split_type":[0,0,0,0,0,0,0,0,0,0,0,0,0,0,0],"sum_hessian":[3.7489243E2,2.149475E2,1.5994495E2,1.858696E2,2.9077887E1,2.1830654E1,1.3811429E2,1.523044E2,3.3565205E1,1.3382491E0,2.7739637E1,9.937052E0,1.1893602E1,1.868512E1,1.1942917E2],"tree_param":{"num_deleted":"0","num_feature":"7","num_nodes":"15","size_leaf_vector":"1"}},{"base_weights":[7.780049E-5,-3.660371E-2,5.8692176E-2,-2.7437422E-5,-2.7192986E-1,4.521943E-1,-7.572127E-3,1.2134477E-2,-1.2791994E-2,-5.078603E-2,6.801488E-2,-2.7292136E-2,6.5026514E-2,-3.5173386E-2,3.636018E-3],"categories":[],"categories_nodes":[],"categories_segments":[],"categories_sizes":[],"default_left":[0,0,0,0,0,0,0,0,0,0,0,0,0,0,0],"id":78,"left_children":[1,3,5,7,9,11,13,-1,-1,-1,-1,-1,-1,-1,-1],"loss_changes":[8.095077E-1,1.993288E0,3.7823455E0,3.142214E0,7.3429356E0,3.1797671E0,1.9030757E0,0E0,0E0,0E0,0E0,0E0,0E0,0E0,0E0],"parents":[2147483647,0,0,1,1,2,2,3,3,4,4,5,5,6,6],"right_children":[2,4,6,8,10,12,14,-1,-1,-1,-1,-1,-1,-1,-1],"split_conditions":[7.561E-1,7.436E-1,7.701E-1,7.258E-1,7.869E-1,6.778E-1,6.667E-1,1.2134477E-2,-1.2791994E-2,-5.078603E-2,6.801488E-2,-2.7292136E-2,6.5026514E-2,-3.5173386E-2,3.636018E-3],"split_indices":[6,6,6,4,4,3,4,0,0,0,0,0,0,0,0],"split_type":[0,0,0,0,0,0,0,0,0,0,0,0,0,0,0],"sum_hessian":[3.745048E2,2.305805E2,1.4392427E2,2.0042844E2,3.0152077E1,1.9903828E1,1.2402045E2,1.0286191E2,9.756653E1,2.4538E1,5.614077E0,4.189313E0,1.5714515E1,1.3246022E1,1.1077443E2],"tree_param":{"num_deleted":"0","num_feature":"7","num_nodes":"15","size_leaf_vector":"1"}},{"base_weights":[2.4829456E-4,1.3980691E-1,-1.6281608E-2,-2.3769429E-2,6.6854346E-1,-4.6932063E-1,-2.2047975E-3,2.598009E-2,-1.6833689E-2,5.038543E-3,8.7461695E-2,6.0729634E-2,-7.816991E-2,-2.0184403E-2,2.6945816E-3],"categories":[],"categories_nodes":[],"categories_segments":[],"categories_sizes":[],"default_left":[0,0,0,0,0,0,0,0,0,0,0,0,0,0,0],"id":79,"left_children":[1,3,5,7,9,11,13,-1,-1,-1,-1,-1,-1,-1,-1],"loss_changes":[8.6660826E-1,3.4566402E0,2.1410613E0,1.3288726E0,1.1576881E0,3.8773825E0,1.9071344E0,0E0,0E0,0E0,0E0,0E0,0E0,0E0,0E0],"parents":[2147483647,0,0,1,1,2,2,3,3,4,4,5,5,6,6],"right_children":[2,4,6,8,10,12,14,-1,-1,-1,-1,-1,-1,-1,-1],"split_conditions":[5.833E-1,5.658E-1,6E-1,5E-1,6.707E-1,5E-1,5.5553335E-1,2.598009E-2,-1.6833689E-2,5.038543E-3,8.7461695E-2,6.0729634E-2,-7.816991E-2,-2.0184403E-2,2.6945816E-3],"split_indices":[5,5,5,5,4,1,0,0,0,0,0,0,0,0,0],"split_type":[0,0,0,0,0,0,0,0,0,0,0,0,0,0,0],"sum_hessian":[3.736741E2,3.8782608E1,3.3489148E2,3.034863E1,8.433975E0,9.117568E0,3.2577393E2,9.978542E0,2.0370089E1,2.4198022E0,6.014173E0,1.8381735E0,7.279395E0,4.0752754E1,2.8502118E2],"tree_param":{"num_deleted":"0","num_feature":"7","num_nodes":"15","size_leaf_vector":"1"}},{"base_weights":[4.752406E-4,4.7892224E-2,-4.6297856E-2,1.8626703E-2,2.8556687E-1,-4.4912088E-1,-1.8138009E-4,7.5398306E-3,-2.601474E-2,-1.9145356E-2,5.949666E-2,-5.505525E-2,7.01619E-2,-3.0547915E-2,3.3993858E-3],"categories":[],"categories_nodes":[],"categories_segments":[],"categories_sizes":[],"default_left":[0,0,0,0,1,0,0,0,0,0,0,0,0,0,0],"id":80,"left_children":[1,3,5,7,9,11,13,-1,-1,-1,-1,-1,-1,-1,-1],"loss_changes":[8.320528E-1,1.2904853E0,3.508503E0,2.6616876E0,3.1180015E0,2.6507733E0,1.788989E0,0E0,0E0,0E0,0E0,0E0,0E0,0E0,0E0],"parents":[2147483647,0,0,1,1,2,2,3,3,4,4,5,5,6,6],"right_children":[2,4,6,8,10,12,14,-1,-1,-1,-1,-1,-1,-1,-1],"split_conditions":[7.071E-1,7.843E-1,7.157E-1,7.439E-1,5.484E-1,7.692E-1,6.615E-1,7.5398306E-3,-2.601474E-2,-1.9145356E-2,5.949666E-2,-5.505525E-2,7.01619E-2,-3.0547915E-2,3.3993858E-3],"split_indices":[3,6,3,6,5,4,5,0,0,0,0,0,0,0,0],"split_type":[0,0,0,0,0,0,0,0,0,0,0,0,0,0,0],"sum_hessian":[3.73164E2,1.8529463E2,1.8786937E2,1.6594032E2,1.9354311E1,1.840085E1,1.6946852E2,1.3847067E2,2.746965E1,7.7645073E0,1.1589804E1,1.7389614E1,1.0112358E0,1.626145E1,1.5320706E2],"tree_param":{"num_deleted":"0","num_feature":"7","num_nodes":"15","size_leaf_vector":"1"}},{"base_weights":[5.2735774E-4,1.3843769E-1,-1.50817465E-2,-1.3800357E-2,7.515183E-1,-2.0476282E-1,1.2197179E-2,2.2078602E-2,-1.7831627E-2,9.5214985E-2,8.51906E-3,-2.8682387E-2,8.87442E-2,2.6142662E-2,-2.475136E-3],"categories":[],"categories_nodes":[],"categories_segments":[],"categories_sizes":[],"default_left":[0,0,0,0,0,1,0,0,0,0,0,0,0,0,0],"id":81,"left_children":[1,3,5,7,9,11,13,-1,-1,-1,-1,-1,-1,-1,-1],"loss_changes":[8.071567E-1,3.5686033E0,1.7455364E0,1.2559023E0,9.351177E-1,4.05574E0,2.7272058E0,0E0,0E0,0E0,0E0,0E0,0E0,0E0,0E0],"parents":[2147483647,0,0,1,1,2,2,3,3,4,4,5,5,6,6],"right_children":[2,4,6,8,10,12,14,-1,-1,-1,-1,-1,-1,-1,-1],"split_conditions":[5.789E-1,5.658E-1,5.5553335E-1,7.167E-1,7.719E-1,8.148E-1,6.667E-1,2.2078602E-2,-1.7831627E-2,9.5214985E-2,8.51906E-3,-2.8682387E-2,8.87442E-2,2.6142662E-2,-2.475136E-3],"split_indices":[5,5,0,4,6,4,1,0,0,0,0,0,0,0,0],"split_type":[0,0,0,0,0,0,0,0,0,0,0,0,0,0,0],"sum_hessian":[3.7298853E2,3.712356E1,3.3586496E2,3.0521948E1,6.601613E0,4.1411095E1,2.9445386E2,1.244061E1,1.8081339E1,4.744186E0,1.8574271E0,3.9203026E1,2.2080667E0,3.723264E1,2.5722122E2],"tree_param":{"num_deleted":"0","num_feature":"7","num_nodes":"15","size_leaf_vector":"1"}},{"base_weights":[1.0578699E-3,7.5461813E-3,-3.051341E-1,-7.927527E-3,4.4083294E-1,7.347416E-2,-6.0610324E-1,6.6489656E-4,-4.5274843E-2,-1.2353561E-2,7.275925E-2,3.3794243E-2,-9.022027E-2],"categories":[],"categories_nodes":[],"categories_segments":[],"categories_sizes":[],"default_left":[0,0,0,0,0,0,1,0,0,0,0,0,0],"id":82,"left_children":[1,3,5,7,9,-1,11,-1,-1,-1,-1,-1,-1],"loss_changes":[7.442814E-1,2.462087E0,2.8783789E0,2.3050826E0,2.1390789E0,0E0,2.1433825E0,0E0,0E0,0E0,0E0,0E0,0E0],"parents":[2147483647,0,0,1,1,2,2,3,3,4,4,6,6],"right_children":[2,4,6,8,10,-1,12,-1,-1,-1,-1,-1,-1],"split_conditions":[8.492E-1,8.148E-1,8.5E-1,8E-1,8.375E-1,7.347416E-2,8.333E-1,6.6489656E-4,-4.5274843E-2,-1.2353561E-2,7.275925E-2,3.3794243E-2,-9.022027E-2],"split_indices":[3,3,6,3,6,0,5,0,0,0,0,0,0],"split_type":[0,0,0,0,0,0,0,0,0,0,0,0,0],"sum_hessian":[3.7247888E2,3.6570483E2,6.774055E0,3.5404282E2,1.1662013E1,1.1970134E0,5.5770416E0,3.43763E2,1.0279838E1,4.120904E0,7.541109E0,1.2978451E0,4.2791963E0],"tree_param":{"num_deleted":"0","num_feature":"7","num_nodes":"13","size_leaf_vector":"1"}},{"base_weights":[1.0969592E-3,-3.8566652E-1,6.1688297E-3,1.4591579E-1,-9.7511955E-2,4.4230652E-1,-2.914896E-3,3.4256857E-2,-8.204247E-3,7.6381445E-2,4.4907946E-3,-2.8900875E-2,1.3128221E-3],"categories":[],"categories_nodes":[],"categories_segments":[],"categories_sizes":[],"default_left":[0,0,0,0,0,1,0,0,0,0,0,0,0],"id":83,"left_children":[1,3,5,7,-1,9,11,-1,-1,-1,-1,-1,-1],"loss_changes":[7.3439115E-1,1.6607409E0,1.4644535E0,1.8132553E-1,0E0,9.292804E-1,1.6688975E0,0E0,0E0,0E0,0E0,0E0,0E0],"parents":[2147483647,0,0,1,1,2,2,3,3,5,5,6,6],"right_children":[2,4,6,8,-1,10,12,-1,-1,-1,-1,-1,-1],"split_conditions":[5E-1,1E0,5.556E-1,5.405E-1,-9.7511955E-2,7E-1,6.154E-1,3.4256857E-2,-8.204247E-3,7.6381445E-2,4.4907946E-3,-2.8900875E-2,1.3128221E-3],"split_indices":[6,2,6,3,0,5,6,0,0,0,0,0,0],"split_type":[0,0,0,0,0,0,0,0,0,0,0,0,0],"sum_hessian":[3.721682E2,3.8459885E0,3.683222E2,2.4179137E0,1.4280747E0,6.5417233E0,3.617805E2,1.0281718E0,1.3897419E0,3.1064615E0,3.4352615E0,1.830667E1,3.4347382E2],"tree_param":{"num_deleted":"0","num_feature":"7","num_nodes":"13","size_leaf_vector":"1"}},{"base_weights":[9.5528056E-4,-3.157521E-2,5.959369E-2,-5.3686593E-3,-4.4689208E-1,4.4308832E-1,-1.2732467E-2,3.4307397E-3,-4.5232892E-2,-8.687884E-2,-1.2004034E-3,8.829222E-2,2.9402485E-2,-1.8118596E-2,8.134312E-3],"categories":[],"categories_nodes":[],"categories_segments":[],"categories_sizes":[],"default_left":[0,0,0,0,0,1,0,0,0,0,0,0,0,0,0],"id":84,"left_children":[1,3,5,7,9,11,13,-1,-1,-1,-1,-1,-1,